{"learner":{"attributes":{"best_iteration":"99","best_ntree_limit":"100","scikit_learn":"{\"use_label_encoder\": false, \"n_estimators\": 100, \"objective\": \"multi:softprob\", \"max_depth\": null, \"max_leaves\": null, \"max_bin\": null, \"grow_policy\": null, \"learning_rate\": null, \"verbosity\": null, \"booster\": null, \"tree_method\": null, \"gamma\": null, \"min_child_weight\": null, \"max_delta_step\": null, \"subsample\": null, \"sampling_method\": null, \"colsample_bytree\": null, \"colsample_bylevel\": null, \"colsample_bynode\": null, \"reg_alpha\": null, \"reg_lambda\": null, \"scale_pos_weight\": 33, \"base_score\": null, \"missing\": NaN, \"num_parallel_tree\": null, \"random_state\": null, \"n_jobs\": null, \"monotone_constraints\": null, \"interaction_constraints\": null, \"importance_type\": null, \"gpu_id\": null, \"validate_parameters\": null, \"predictor\": null, \"enable_categorical\": false, \"max_cat_to_onehot\": null, \"eval_metric\": null, \"early_stopping_rounds\": null, \"callbacks\": null, \"classes_\": [0.0, 1.0, 2.0], \"n_classes_\": 3, \"_estimator_type\": \"classifier\"}"},"feature_names":["Price","Open","High","Low","Vol.","Change %","volume_adi","volume_obv","volume_cmf","volume_fi","volume_em","volume_sma_em","volume_vpt","volume_vwap","volume_mfi","volume_nvi","volatility_bbm","volatility_bbh","volatility_bbl","volatility_bbw","volatility_bbp","volatility_bbhi","volatility_bbli","volatility_kcc","volatility_kch","volatility_kcl","volatility_kcw","volatility_kcp","volatility_kchi","volatility_kcli","volatility_dcl","volatility_dch","volatility_dcm","volatility_dcw","volatility_dcp","volatility_atr","volatility_ui","trend_macd","trend_macd_signal","trend_macd_diff","trend_sma_fast","trend_sma_slow","trend_ema_fast","trend_ema_slow","trend_vortex_ind_pos","trend_vortex_ind_neg","trend_vortex_ind_diff","trend_trix","trend_mass_index","trend_dpo","trend_kst","trend_kst_sig","trend_kst_diff","trend_ichimoku_conv","trend_ichimoku_base","trend_ichimoku_a","trend_ichimoku_b","trend_stc","trend_adx","trend_adx_pos","trend_adx_neg","trend_cci","trend_visual_ichimoku_a","trend_visual_ichimoku_b","trend_aroon_up","trend_aroon_down","trend_aroon_ind","trend_psar_up","trend_psar_down","trend_psar_up_indicator","trend_psar_down_indicator","momentum_rsi","momentum_stoch_rsi","momentum_stoch_rsi_k","momentum_stoch_rsi_d","momentum_tsi","momentum_uo","momentum_stoch","momentum_stoch_signal","momentum_wr","momentum_ao","momentum_roc","momentum_ppo","momentum_ppo_signal","momentum_ppo_hist","momentum_pvo","momentum_pvo_signal","momentum_pvo_hist","momentum_kama","others_dr","others_dlr","others_cr","VolAvgNDays"],"feature_types":["float","float","float","float","int","float","float","int","float","float","float","float","float","float","float","float","float","float","float","float","float","float","float","float","float","float","float","float","float","float","float","float","float","float","float","float","float","float","float","float","float","float","float","float","float","float","float","float","float","float","float","float","float","float","float","float","float","float","float","float","float","float","float","float","float","float","float","float","float","float","float","float","float","float","float","float","float","float","float","float","float","float","float","float","float","float","float","float","float","float","float","float","float"],"gradient_booster":{"model":{"gbtree_model_param":{"num_parallel_tree":"1","num_trees":"300","size_leaf_vector":"0"},"tree_info":[0,1,2,0,1,2,0,1,2,0,1,2,0,1,2,0,1,2,0,1,2,0,1,2,0,1,2,0,1,2,0,1,2,0,1,2,0,1,2,0,1,2,0,1,2,0,1,2,0,1,2,0,1,2,0,1,2,0,1,2,0,1,2,0,1,2,0,1,2,0,1,2,0,1,2,0,1,2,0,1,2,0,1,2,0,1,2,0,1,2,0,1,2,0,1,2,0,1,2,0,1,2,0,1,2,0,1,2,0,1,2,0,1,2,0,1,2,0,1,2,0,1,2,0,1,2,0,1,2,0,1,2,0,1,2,0,1,2,0,1,2,0,1,2,0,1,2,0,1,2,0,1,2,0,1,2,0,1,2,0,1,2,0,1,2,0,1,2,0,1,2,0,1,2,0,1,2,0,1,2,0,1,2,0,1,2,0,1,2,0,1,2,0,1,2,0,1,2,0,1,2,0,1,2,0,1,2,0,1,2,0,1,2,0,1,2,0,1,2,0,1,2,0,1,2,0,1,2,0,1,2,0,1,2,0,1,2,0,1,2,0,1,2,0,1,2,0,1,2,0,1,2,0,1,2,0,1,2,0,1,2,0,1,2,0,1,2,0,1,2,0,1,2,0,1,2,0,1,2,0,1,2,0,1,2,0,1,2,0,1,2,0,1,2,0,1,2,0,1,2],"trees":[{"base_weights":[-5.00025E-1,-7.1227294E-1,2.629892E-1,-7.1949893E-1,2.0930229E-1,-6.464251E-1,5.38874E-1,-7.3344344E-1,-5.16941E-1,1.2786885E0,-6.623377E-1,1.0909091E0,-6.9809437E-1,1.11316815E-2,1.0240138E0,-2.5544848E-8,-7.340492E-1,-6.9017345E-1,3.5593218E-1,-7.33945E-1,9.6E-1,-2.9592764E-1,6.6218805E-1,6.0507756E-1,1.2983794E0,-7.022617E-1,-7.467071E-1,-2.3762381E-1,-7.4126786E-1,7.218045E-1,-6.2264156E-1,-7.430341E-1,-2.5544848E-8,9.815668E-1,-6.0200673E-1,-6.8807346E-1,9.976247E-1,1.1815385E0,1.1450378E-1,-4.8000002E-1,1.3301065E0,-7.4838716E-1,1.0619469E0,-7.4932784E-1,-5.944701E-1,-6.6666675E-1,1.0344827E0,9.823009E-1,-5.172414E-1,1.4219654E0,-6.2264156E-1,9.512195E-1,-6.693642E-1,1.2674772E0,2.970293E-2,1.3636364E0,-5.675676E-1,1.0824742E0,-1.9672136E-1,1.3628318E0,-4.8000002E-1],"categories":[],"categories_nodes":[],"categories_segments":[],"categories_sizes":[],"default_left":[1,1,1,1,1,1,1,1,1,0,0,0,1,1,1,0,1,1,1,1,0,1,1,1,1,1,1,1,0,1,0,0,0,1,1,0,1,1,1,0,1,0,0,0,0,0,0,0,0,0,0,0,0,0,0,0,0,0,0,0,0],"id":0,"left_children":[1,3,5,7,9,11,13,15,17,-1,-1,-1,19,21,23,-1,25,27,29,31,-1,33,35,37,39,41,43,45,-1,47,-1,-1,-1,49,51,-1,53,55,57,-1,59,-1,-1,-1,-1,-1,-1,-1,-1,-1,-1,-1,-1,-1,-1,-1,-1,-1,-1,-1,-1],"loss_changes":[3.608819E2,1.1756348E1,1.2214322E2,4.5057373E0,1.4207307E1,1.0945091E1,9.548733E1,7.178345E-1,1.7601198E1,0E0,0E0,0E0,7.2896385E0,3.6113647E1,2.1551376E1,0E0,1.251831E-1,2.0462074E0,7.4907417E0,7.271271E-1,0E0,4.8598785E1,2.6905891E1,2.2142794E1,7.2148438E0,3.957448E1,8.850098E-3,6.8146124E0,0E0,5.2778654E0,0E0,0E0,0E0,1.7919657E1,1.106398E1,0E0,1.2180523E1,1.2275654E1,1.3367823E1,0E0,7.453186E0,0E0,0E0,0E0,0E0,0E0,0E0,0E0,0E0,0E0,0E0,0E0,0E0,0E0,0E0,0E0,0E0,0E0,0E0,0E0,0E0],"parents":[2147483647,0,0,1,1,2,2,3,3,4,4,5,5,6,6,7,7,8,8,12,12,13,13,14,14,16,16,17,17,18,18,19,19,21,21,22,22,23,23,24,24,25,25,26,26,27,27,29,29,33,33,34,34,36,36,37,37,38,38,40,40],"right_children":[2,4,6,8,10,12,14,16,18,-1,-1,-1,20,22,24,-1,26,28,30,32,-1,34,36,38,40,42,44,46,-1,48,-1,-1,-1,50,52,-1,54,56,58,-1,60,-1,-1,-1,-1,-1,-1,-1,-1,-1,-1,-1,-1,-1,-1,-1,-1,-1,-1,-1,-1],"split_conditions":[4.4881603E1,8.47375E2,3.785E3,3.2561684E1,6.4634467E2,2.315013E6,1.9261258E0,-5.4151E-1,9.311679E0,3.8360658E-1,-1.9870132E-1,3.2727274E-1,1.75115E3,6.082904E2,1.4454499E1,-7.663455E-9,-1.4158732E7,2.8226673E1,1.798328E1,7.435E-2,2.8800002E-1,7.4413795E1,-6.8900925E6,-1.4154302E7,-5.331431E7,-1.5638152E7,1.4903107E1,-2.72613E0,-2.2238037E-1,7.495265E2,-1.8679248E-1,-2.2291024E-1,-7.663455E-9,4.1306557E1,5.3434247E-1,-2.0642205E-1,3.52603E1,1.6288235E1,2.6982288E1,-1.4400001E-1,7.9927563E2,-2.2451615E-1,3.1858408E-1,-2.2479837E-1,-1.7834103E-1,-2.0000003E-1,3.1034482E-1,2.9469028E-1,-1.5517244E-1,4.2658964E-1,-1.8679248E-1,2.8536585E-1,-2.0080927E-1,3.8024315E-1,8.9108795E-3,4.0909094E-1,-1.7027028E-1,3.247423E-1,-5.901641E-2,4.0884957E-1,-1.4400001E-1],"split_indices":[91,31,4,91,15,7,38,20,26,0,0,0,56,17,35,0,6,71,86,5,0,88,6,6,10,6,26,38,0,15,0,0,0,19,45,0,58,26,58,0,88,0,0,0,0,0,0,0,0,0,0,0,0,0,0,0,0,0,0,0,0],"split_type":[0,0,0,0,0,0,0,0,0,0,0,0,0,0,0,0,0,0,0,0,0,0,0,0,0,0,0,0,0,0,0,0,0,0,0,0,0,0,0,0,0,0,0,0,0,0,0,0,0,0,0,0,0,0,0,0,0,0,0,0,0],"sum_hessian":[2.2262222E3,1.7417777E3,4.8444443E2,1.7284443E3,1.3333332E1,1.12444435E2,3.7199997E2,1.6146666E3,1.1377777E2,5.7777777E0,7.5555553E0,2.6666665E0,1.0977777E2,1.7866666E2,1.9333333E2,1.3333333E0,1.6133333E3,9.511111E1,1.8666666E1,1.0799999E2,1.7777777E0,1.2177777E2,5.6888885E1,7.777777E1,1.1555555E2,4.7555554E2,1.1377777E3,1.0222221E1,8.4888885E1,1.3777777E1,4.8888884E0,1.0666666E2,1.3333333E0,2.311111E1,9.8666664E1,1.1111111E1,4.5777775E1,3.511111E1,4.2666664E1,1.7777777E0,1.1377777E2,4.6399997E2,1.1555555E1,1.1146666E3,2.311111E1,7.9999995E0,2.222222E0,1.1555555E1,2.222222E0,1.8222221E1,4.8888884E0,3.5555553E0,9.511111E1,3.5555553E1,1.0222221E1,3.1999998E1,3.111111E0,9.777777E0,3.2888885E1,1.1199999E2,1.7777777E0],"tree_param":{"num_deleted":"0","num_feature":"93","num_nodes":"61","size_leaf_vector":"0"}},{"base_weights":[3.126465E-1,4.572309E-1,-5.5862796E-1,9.5711833E-1,-5.9922043E-2,-6.542022E-1,1.0363636E0,-5.052035E-1,1.1568143E0,1.3454734E0,-2.397124E-1,5.9999996E-1,-7.024953E-1,1.4014598E0,-5.675676E-1,1.3714286E0,-7.0551515E-1,1.2735419E0,-7.350994E-1,1.3043475E-1,1.4250833E0,-4.2411354E-1,7.5959074E-1,-5.853659E-1,1.1917808E0,-7.4347293E-1,-1.7910452E-1,8.571428E-1,-7.334036E-1,1.3742944E0,-7.3087823E-1,1.0909091E0,-6E-1,-4.2857146E-1,1.4544432E0,-5.904344E-1,5.9197325E-1,1.2867051E0,-7.0031554E-1,-7.4718875E-1,-2.5544848E-8,-7.0588243E-1,1.2631578E0,-7.4279624E-1,-2.5544848E-8,-4.9624065E-1,1.4091378E0,1.4743444E0,-2.5544848E-8,6.506024E-1,-6.4864874E-1,-7.278689E-1,1.2529118E0,-4.7191018E-1,1.4713376E0,-2.5544848E-8,-7.278689E-1],"categories":[],"categories_nodes":[],"categories_segments":[],"categories_sizes":[],"default_left":[1,1,1,1,1,1,1,1,1,1,1,1,1,0,0,0,1,1,0,1,1,1,0,0,0,1,1,0,1,1,0,0,0,0,1,1,1,1,1,0,0,0,0,0,0,0,0,0,0,0,0,0,0,0,0,0,0],"id":1,"left_children":[1,3,5,7,9,11,13,15,17,19,21,23,25,-1,-1,-1,27,29,-1,31,33,35,37,-1,-1,39,41,-1,43,45,-1,-1,-1,-1,47,49,51,53,55,-1,-1,-1,-1,-1,-1,-1,-1,-1,-1,-1,-1,-1,-1,-1,-1,-1,-1],"loss_changes":[2.8082455E2,4.940283E2,4.9069244E1,2.8433032E2,2.3786656E2,1.8598999E1,1.1531225E1,4.511626E1,1.8980237E2,1.0142609E1,1.5406694E2,8.881523E0,6.074646E0,0E0,0E0,0E0,5.2820244E0,1.6375378E2,0E0,6.0332017E0,6.071701E0,1.1949198E2,1.01197495E2,0E0,0E0,7.406769E-1,1.7859432E1,0E0,7.263603E-1,5.0732544E1,0E0,0E0,0E0,0E0,2.859146E0,4.422725E1,8.785464E1,3.1901367E1,6.7964935E-1,0E0,0E0,0E0,0E0,0E0,0E0,0E0,0E0,0E0,0E0,0E0,0E0,0E0,0E0,0E0,0E0,0E0,0E0],"parents":[2147483647,0,0,1,1,2,2,3,3,4,4,5,5,6,6,7,7,8,8,9,9,10,10,11,11,12,12,16,16,17,17,19,19,20,20,21,21,22,22,25,25,26,26,28,28,29,29,34,34,35,35,36,36,37,37,38,38],"right_children":[2,4,6,8,10,12,14,16,18,20,22,24,26,-1,-1,-1,28,30,-1,32,34,36,38,-1,-1,40,42,-1,44,46,-1,-1,-1,-1,48,50,52,54,56,-1,-1,-1,-1,-1,-1,-1,-1,-1,-1,-1,-1,-1,-1,-1,-1,-1,-1],"split_conditions":[3.44709E5,1.4681955E2,8.73356E7,-3.6177664E7,2.3756704E0,-5.4098153E-1,2.275E1,-5.985861E7,5.574856E6,1.4632501E2,-9.216913E5,2.4157292E2,6.364237E2,4.2043796E-1,-1.7027028E-1,4.114286E-1,3.983302E1,5.8513206E1,-2.2052982E-1,2.100004E-1,-1.2186781E2,1.3329002E7,1.0686425E5,-1.7560977E-1,3.5753426E-1,3.6324257E1,-1.4154302E7,2.5714284E-1,6.249659E7,-4.3226402E1,-2.1926348E-1,3.2727274E-1,-1.8E-1,-1.2857145E-1,6.482368E4,1.0229885E6,-6.985703E6,-1.54275055E1,2.0795E2,-2.2415663E-1,-7.663455E-9,-2.1176474E-1,3.7894738E-1,-2.2283888E-1,-7.663455E-9,-1.488722E-1,4.2274138E-1,4.4230333E-1,-7.663455E-9,1.9518073E-1,-1.9459464E-1,-2.1836068E-1,3.7587357E-1,-1.4157306E-1,4.4140127E-1,-7.663455E-9,-2.1836068E-1],"split_indices":[92,88,7,6,26,8,1,6,6,54,6,15,15,0,0,0,88,91,0,39,61,7,92,0,0,86,6,0,7,75,0,0,0,0,9,7,6,91,0,0,0,0,0,0,0,0,0,0,0,0,0,0,0,0,0,0,0],"split_type":[0,0,0,0,0,0,0,0,0,0,0,0,0,0,0,0,0,0,0,0,0,0,0,0,0,0,0,0,0,0,0,0,0,0,0,0,0,0,0,0,0,0,0,0,0,0,0,0,0,0,0,0,0,0,0,0,0],"sum_hessian":[2.2262222E3,1.9097777E3,3.1644443E2,9.706666E2,9.391111E2,2.9911108E2,1.7333332E1,1.16444435E2,8.5422217E2,1.0577777E2,8.333333E2,1.0666666E1,2.8844443E2,1.4222221E1,3.111111E0,1.0666666E1,1.0577777E2,8.0488885E2,4.9333332E1,6.666666E0,9.911111E1,7.0399994E2,1.2933333E2,3.5555553E0,7.1111107E0,2.6711108E2,2.1333332E1,1.3333333E0,1.04444435E2,7.666666E2,3.822222E1,2.6666665E0,3.9999998E0,1.3333333E0,9.777777E1,6.053333E2,9.8666664E1,9.511111E1,3.422222E1,2.6577777E2,1.3333333E0,1.5999999E1,5.333333E0,1.0311111E2,1.3333333E0,1.3777777E1,7.5288885E2,9.6444435E1,1.3333333E0,2.6666664E1,5.786666E2,3.2888885E1,6.577777E1,8.888888E0,8.622221E1,1.3333333E0,3.2888885E1],"tree_param":{"num_deleted":"0","num_feature":"93","num_nodes":"57","size_leaf_vector":"0"}},{"base_weights":[1.8737836E-1,7.762094E-1,-2.7180767E-1,1.3204931E0,-3.0274302E-1,-5.3614956E-1,5.8511835E-1,-7.228916E-1,1.4092126E0,-6.184267E-1,9.846154E-1,-7.3826754E-1,-8.616193E-2,-7.161291E-1,8.5714287E-1,1.4625943E0,7.4828374E-1,-7.306824E-1,8.4971094E-1,-6.9767445E-1,1.432258E0,-7.457916E-1,-4.109593E-2,1.3859649E0,-4.327056E-1,-7.350994E-1,-2.5544848E-8,1.2019672E0,8.272855E-2,1.4948169E0,1.2806183E0,1.3910035E0,-4.7770706E-1,-7.469277E-1,9.6E-1,1.2700729E0,-6E-1,6.486486E-1,1.4691075E0,-7.473165E-1,-2.5544848E-8,-6.2264156E-1,1.0344827E0,1.4547284E0,-4.8000002E-1,-5.102724E-1,1.3548387E0,5.827338E-1,1.4234557E0,-5.835617E-1,8.108108E-1,4.285714E-1,1.4968815E0,-6.575343E-1,1.4478765E0,1.4512635E0,-2.5544848E-8,-7.021277E-1,9.6E-1,-2.5544848E-8,1.392E0,9.6E-1,-2.5544848E-8,4.285714E-1,1.472165E0,1.1142857E0,-5.9339017E-1,1.4457831E0,-6.61017E-1,1.4550408E0,-4.8000002E-1,-6.54391E-1,8.571428E-1,1.4050633E0,-6.000001E-1],"categories":[],"categories_nodes":[],"categories_segments":[],"categories_sizes":[],"default_left":[1,1,1,1,1,1,0,0,1,1,1,1,1,1,1,1,1,1,1,0,1,1,1,1,1,0,0,1,1,1,1,1,1,0,0,1,0,1,0,0,0,0,0,1,0,1,0,1,1,1,1,0,0,0,0,0,0,0,0,0,0,0,0,0,0,0,0,0,0,0,0,0,0,0,0],"id":2,"left_children":[1,3,5,7,9,11,13,-1,15,17,19,21,23,25,27,29,31,33,35,-1,37,39,41,43,45,-1,-1,47,49,51,53,55,57,-1,-1,59,-1,61,-1,-1,-1,-1,-1,63,-1,65,-1,67,69,71,73,-1,-1,-1,-1,-1,-1,-1,-1,-1,-1,-1,-1,-1,-1,-1,-1,-1,-1,-1,-1,-1,-1,-1,-1],"loss_changes":[6.0241394E2,5.73627E2,2.839437E2,1.18674805E2,1.3395259E2,8.701651E1,1.052713E2,0E0,2.0862427E1,4.414821E1,4.994846E1,3.4343567E0,1.5256958E2,7.019024E-1,6.53246E1,1.4560547E0,3.8924744E1,7.4705353E0,1.2476132E1,0E0,5.3897095E-1,7.43103E-1,5.717596E0,8.011955E0,3.423021E1,0E0,0E0,2.2410324E1,3.7611336E1,4.202881E-1,3.124408E1,2.6916122E0,6.302513E0,0E0,0E0,2.357256E0,0E0,8.302702E-1,0E0,0E0,0E0,0E0,0E0,3.5714722E-1,0E0,3.206309E1,0E0,5.0690735E1,8.16011E0,4.69936E0,3.1863018E1,0E0,0E0,0E0,0E0,0E0,0E0,0E0,0E0,0E0,0E0,0E0,0E0,0E0,0E0,0E0,0E0,0E0,0E0,0E0,0E0,0E0,0E0,0E0,0E0],"parents":[2147483647,0,0,1,1,2,2,3,3,4,4,5,5,6,6,8,8,9,9,10,10,11,11,12,12,13,13,14,14,15,15,16,16,17,17,18,18,20,20,21,21,22,22,23,23,24,24,27,27,28,28,29,29,30,30,31,31,32,32,35,35,37,37,43,43,45,45,47,47,48,48,49,49,50,50],"right_children":[2,4,6,8,10,12,14,-1,16,18,20,22,24,26,28,30,32,34,36,-1,38,40,42,44,46,-1,-1,48,50,52,54,56,58,-1,-1,60,-1,62,-1,-1,-1,-1,-1,64,-1,66,-1,68,70,72,74,-1,-1,-1,-1,-1,-1,-1,-1,-1,-1,-1,-1,-1,-1,-1,-1,-1,-1,-1,-1,-1,-1,-1,-1],"split_conditions":[-1.6740532E1,4.132027E7,1.3047733E7,5.6877565E0,3.4451325E5,2.5562039E2,5.95E2,-2.1686749E-1,-2.2749702E1,1.4991137E0,2.0666666E1,3.0425785E1,3.0665002E2,1.1205E3,1.9261258E0,-4.1940544E1,2.0690219E4,2.38E1,-4.326693E7,-2.0930235E-1,2.0395344E1,1.3009338E7,-1.4413388E2,9.782609E-1,7.984257E2,-2.2052982E-1,-7.663455E-9,6.797554E1,1.0931734E2,6.0802164E0,2.0739096E1,4.5125E2,1.70485E2,-2.2407831E-1,2.8800002E-1,4.0805E4,-1.8E-1,2.135E1,4.4073227E-1,-2.2419496E-1,-7.663455E-9,-1.8679248E-1,3.1034482E-1,-7.59E-2,-1.4400001E-1,-6.65477E0,4.0645164E-1,1.8506604E2,-6.869747E6,4.0554524E7,-6.985424E6,1.2857142E-1,4.4906446E-1,-1.972603E-1,4.3436295E-1,4.353791E-1,-7.663455E-9,-2.1063831E-1,2.8800002E-1,-7.663455E-9,4.176E-1,2.8800002E-1,-7.663455E-9,1.2857142E-1,4.4164953E-1,3.3428574E-1,-1.7801705E-1,4.3373495E-1,-1.9830512E-1,4.3651226E-1,-1.4400001E-1,-1.963173E-1,2.5714284E-1,4.21519E-1,-1.8000004E-1],"split_indices":[91,7,7,15,92,88,92,0,91,35,25,60,3,0,38,91,6,30,6,0,18,7,61,34,51,0,0,88,88,15,15,0,0,0,0,4,0,1,0,0,0,0,0,5,0,83,0,15,6,7,6,0,0,0,0,0,0,0,0,0,0,0,0,0,0,0,0,0,0,0,0,0,0,0,0],"split_type":[0,0,0,0,0,0,0,0,0,0,0,0,0,0,0,0,0,0,0,0,0,0,0,0,0,0,0,0,0,0,0,0,0,0,0,0,0,0,0,0,0,0,0,0,0,0,0,0,0,0,0,0,0,0,0,0,0,0,0,0,0,0,0,0,0,0,0,0,0,0,0,0,0,0,0],"sum_hessian":[2.2262222E3,9.75111E2,1.2511111E3,6.4799994E2,3.2711108E2,9.564444E2,2.9466666E2,2.6666664E1,6.213333E2,2.6311108E2,6.3999996E1,6.5955554E2,2.968889E2,5.0666664E1,2.4399998E2,5.737778E2,4.7555553E1,2.4488887E2,1.8222221E1,1.3333332E1,5.0666664E1,6.524444E2,7.1111107E0,5.5999996E1,2.4088887E2,4.9333332E1,1.3333333E0,1.6844443E2,7.555555E1,4.813333E2,9.244444E1,3.1111109E1,1.6444443E1,2.431111E2,1.7777777E0,1.4222221E1,3.9999998E0,3.111111E0,4.7555553E1,6.511111E2,1.3333333E0,4.8888884E0,2.222222E0,5.4222218E1,1.7777777E0,2.3155554E2,9.333333E0,4.5333332E1,1.2311111E2,3.9555553E1,3.5999996E1,1.3333333E0,4.7999997E2,7.1111107E0,8.533333E1,2.9777777E1,1.3333333E0,1.4666666E1,1.7777777E0,1.3333333E0,1.2888888E1,1.7777777E0,1.3333333E0,1.3333333E0,5.2888885E1,1.0666666E1,2.2088887E2,2.6666664E1,1.8666666E1,1.2133333E2,1.7777777E0,3.822222E1,1.3333333E0,2.5333332E1,1.0666666E1],"tree_param":{"num_deleted":"0","num_feature":"93","num_nodes":"75","size_leaf_vector":"0"}},{"base_weights":[-4.284167E-1,-6.31474E-1,2.0465134E-1,-6.3859326E-1,1.466872E-1,-5.650868E-1,4.0182105E-1,-6.5289676E-1,-4.377022E-1,9.349464E-1,-6.146506E-1,8.695152E-1,-6.1825174E-1,1.2070889E-2,7.1628314E-1,-6.535608E-1,5.162664E-2,-6.088744E-1,2.9403368E-1,-6.550615E-1,7.452385E-1,-3.0692482E-1,4.1586182E-1,4.5995766E-1,9.33725E-1,-6.181703E-1,-6.677374E-1,-1.8418467E-1,-6.606619E-1,5.853162E-1,-5.777663E-1,-6.651176E-1,5.8969755E-2,7.027757E-1,-6.649982E-1,-5.653474E-1,6.288344E-1,5.722216E-1,-5.8885527E-1,9.5834786E-1,-4.5292267E-1,-6.6827416E-1,9.3873805E-1,-6.7052835E-1,-5.1202166E-1,-5.8817285E-1,7.8456295E-1,8.247428E-1,-5.536278E-1,9.813139E-1,-5.562788E-1,8.746409E-3,-6.2216705E-1,-4.879062E-1,8.287917E-1,-1.617331E-1,7.9378825E-1,2.6040684E-2,-6.813815E-1,9.835999E-1,-4.4460684E-1],"categories":[],"categories_nodes":[],"categories_segments":[],"categories_sizes":[],"default_left":[1,1,1,1,1,1,1,1,1,0,0,0,1,1,1,1,0,1,1,0,0,1,1,1,1,1,1,1,0,1,0,0,0,1,0,1,1,1,1,1,0,0,0,0,0,0,0,0,0,0,0,0,0,0,0,0,0,0,0,0,0],"id":3,"left_children":[1,3,5,7,9,11,13,15,17,-1,-1,-1,19,21,23,25,-1,27,29,31,-1,33,35,37,39,41,43,45,-1,47,-1,-1,-1,49,-1,51,53,55,57,59,-1,-1,-1,-1,-1,-1,-1,-1,-1,-1,-1,-1,-1,-1,-1,-1,-1,-1,-1,-1,-1],"loss_changes":[2.5395831E2,8.377441E0,7.312013E1,3.972412E0,9.198088E0,8.039183E0,4.6924416E1,6.799927E-1,1.2896328E1,0E0,0E0,0E0,5.277519E0,2.228439E1,1.1382072E1,2.7972412E-1,0E0,1.6952133E0,5.397387E0,7.1022034E-1,0E0,3.5419037E1,1.6308687E1,1.2021194E1,4.315651E0,3.247026E1,7.946777E-2,4.518057E0,0E0,4.664295E0,0E0,0E0,0E0,9.591841E0,0E0,4.667349E-1,1.4517002E1,1.4788013E1,5.916767E-1,4.4060135E0,0E0,0E0,0E0,0E0,0E0,0E0,0E0,0E0,0E0,0E0,0E0,0E0,0E0,0E0,0E0,0E0,0E0,0E0,0E0,0E0,0E0],"parents":[2147483647,0,0,1,1,2,2,3,3,4,4,5,5,6,6,7,7,8,8,12,12,13,13,14,14,15,15,17,17,18,18,19,19,21,21,22,22,23,23,24,24,25,25,26,26,27,27,29,29,33,33,35,35,36,36,37,37,38,38,39,39],"right_children":[2,4,6,8,10,12,14,16,18,-1,-1,-1,20,22,24,26,-1,28,30,32,-1,34,36,38,40,42,44,46,-1,48,-1,-1,-1,50,-1,52,54,56,58,60,-1,-1,-1,-1,-1,-1,-1,-1,-1,-1,-1,-1,-1,-1,-1,-1,-1,-1,-1,-1,-1],"split_conditions":[4.4881603E1,8.47375E2,3.785E3,3.2561684E1,6.4634467E2,2.315013E6,1.9261258E0,5.105954E1,9.311679E0,2.8048393E-1,-1.843952E-1,2.6085457E-1,1.75115E3,-6.873592E6,3.5815E2,-1.4158732E7,1.5487993E-2,-4.3166916E1,1.798328E1,6.717225E4,2.2357155E-1,7.4413795E1,5.4105334E2,2.13225E2,1.1330516E3,-1.5638152E7,1.4903107E1,-2.72613E0,-1.9819857E-1,1.4430536E1,-1.7332989E-1,-1.995353E-1,1.7690927E-2,4.1306557E1,-1.9949946E-1,-4.265767E-1,3.0887684E1,1.0477884E7,6.725E3,7.9927563E2,-1.358768E-1,-2.0048226E-1,2.8162143E-1,-2.0115851E-1,-1.536065E-1,-1.7645186E-1,2.353689E-1,2.4742284E-1,-1.6608834E-1,2.9439417E-1,-1.6688365E-1,2.6239227E-3,-1.8665013E-1,-1.4637186E-1,2.4863751E-1,-4.8519935E-2,2.3813649E-1,7.8122057E-3,-2.0441447E-1,2.9507998E-1,-1.3338205E-1],"split_indices":[91,31,4,91,15,7,38,87,26,0,0,0,56,6,31,6,0,75,86,92,0,88,15,62,91,6,26,38,0,36,0,0,0,19,0,8,76,7,4,88,0,0,0,0,0,0,0,0,0,0,0,0,0,0,0,0,0,0,0,0,0],"split_type":[0,0,0,0,0,0,0,0,0,0,0,0,0,0,0,0,0,0,0,0,0,0,0,0,0,0,0,0,0,0,0,0,0,0,0,0,0,0,0,0,0,0,0,0,0,0,0,0,0,0,0,0,0,0,0,0,0,0,0,0,0],"sum_hessian":[1.9735693E3,1.4942798E3,4.7928946E2,1.4809106E3,1.336922E1,9.735514E1,3.8193433E2,1.3803776E3,1.0053303E2,6.4564424E0,6.9127774E0,2.930253E0,9.442489E1,1.7101434E2,2.1091998E2,1.3791499E3,1.2276783E0,8.161017E1,1.8922852E1,9.244865E1,1.9762367E0,9.5672646E1,7.5341705E1,9.8234375E1,1.12685616E2,4.0720572E2,9.719442E2,9.365318E0,7.224485E1,1.4430125E1,4.4927273E0,9.123227E1,1.2163801E0,2.4794392E1,7.087825E1,1.3141503E1,6.2200203E1,8.9146614E1,9.087758E0,1.1102304E2,1.662574E0,3.950627E2,1.2142993E1,9.5158295E2,2.0361252E1,6.8863974E0,2.4789207E0,1.21515255E1,2.2785995E0,2.0483469E1,4.3109226E0,1.2597119E0,1.1881791E1,9.227198E0,5.2973003E1,2.0733967E1,6.841264E1,1.2826033E0,7.8051543E0,1.0935367E2,1.669369E0],"tree_param":{"num_deleted":"0","num_feature":"93","num_nodes":"61","size_leaf_vector":"0"}},{"base_weights":[2.402913E-1,3.446146E-1,-4.828792E-1,6.816696E-1,-4.7997423E-2,-5.742271E-1,7.4382776E-1,-4.3263632E-1,8.0479294E-1,9.3240607E-1,-1.9819278E-1,-6.448888E-1,1.4848469E-1,9.7174144E-1,-4.966474E-1,9.5281494E-1,-6.2410367E-1,8.7425756E-1,-6.5396035E-1,1.0498148E-1,9.79744E-1,-3.5848498E-1,5.5847836E-1,3.2697517E-1,-6.5941274E-1,-6.263978E-1,9.7511137E-1,6.728256E-1,-6.528457E-1,9.328288E-1,-6.501073E-1,8.0730104E-1,-5.3404975E-1,-3.902978E-1,9.9854547E-1,-5.104128E-1,4.4128278E-1,8.929205E-1,-6.205933E-1,-3.6368325E-1,7.165345E-1,-6.6323745E-1,1.0970361E-2,6.1944608E-2,-6.63296E-1,-4.145531E-1,9.5293796E-1,1.0105697E0,2.580659E-3,4.7401282E-1,-5.6677794E-1,-6.462456E-1,8.579194E-1,-5.914462E-1,9.928968E-1,-6.5079457E-1,5.677081E-2,-6.6688526E-1,-2.664432E-1],"categories":[],"categories_nodes":[],"categories_segments":[],"categories_sizes":[],"default_left":[1,1,1,1,1,1,1,1,1,1,1,1,1,0,0,0,1,1,0,1,1,1,0,1,1,0,0,0,1,1,0,0,0,0,1,1,1,1,1,0,0,1,0,0,0,0,0,0,0,0,0,0,0,0,0,0,0,0,0],"id":4,"left_children":[1,3,5,7,9,11,13,15,17,19,21,23,25,-1,-1,-1,27,29,-1,31,33,35,37,39,41,-1,-1,-1,43,45,-1,-1,-1,-1,47,49,51,53,55,-1,-1,57,-1,-1,-1,-1,-1,-1,-1,-1,-1,-1,-1,-1,-1,-1,-1,-1,-1],"loss_changes":[1.662655E2,2.5472588E2,3.1576721E1,1.4243842E2,1.3123763E2,1.3336609E1,6.0525227E0,2.8102568E1,9.51109E1,4.5349655E0,9.3905655E1,3.5520782E0,1.5923173E1,0E0,0E0,0E0,3.8579292E0,8.015729E1,0E0,3.809562E0,3.2715988E0,7.776355E1,5.3964096E1,1.3768761E0,6.0526276E-1,0E0,0E0,0E0,7.150917E-1,2.365393E1,0E0,0E0,0E0,0E0,1.3224487E0,3.0050354E1,4.6956017E1,1.630671E1,6.612854E-1,0E0,0E0,1.5800476E-1,0E0,0E0,0E0,0E0,0E0,0E0,0E0,0E0,0E0,0E0,0E0,0E0,0E0,0E0,0E0,0E0,0E0],"parents":[2147483647,0,0,1,1,2,2,3,3,4,4,5,5,6,6,7,7,8,8,9,9,10,10,11,11,12,12,16,16,17,17,19,19,20,20,21,21,22,22,23,23,24,24,28,28,29,29,34,34,35,35,36,36,37,37,38,38,41,41],"right_children":[2,4,6,8,10,12,14,16,18,20,22,24,26,-1,-1,-1,28,30,-1,32,34,36,38,40,42,-1,-1,-1,44,46,-1,-1,-1,-1,48,50,52,54,56,-1,-1,58,-1,-1,-1,-1,-1,-1,-1,-1,-1,-1,-1,-1,-1,-1,-1,-1,-1],"split_conditions":[3.44709E5,1.4681955E2,8.73356E7,-3.6177664E7,2.3756704E0,7.557341E2,2.275E1,-5.985861E7,5.574856E6,1.4632501E2,-9.216913E5,-5.953946E-1,-1.4154302E7,2.9152244E-1,-1.4899422E-1,2.858445E-1,3.983302E1,5.8513206E1,-1.961881E-1,2.100004E-1,-1.2186781E2,1.3329002E7,1.0686425E5,6.57E1,3.6324257E1,-1.8791935E-1,2.9253343E-1,2.0184769E-1,1.6681833E1,-4.3226402E1,-1.9503221E-1,2.4219032E-1,-1.6021493E-1,-1.17089346E-1,6.482368E4,1.0229885E6,-6.985703E6,-1.823679E1,2.2452673E1,-1.0910498E-1,2.1496035E-1,6.364237E2,3.2911084E-3,1.8583383E-2,-1.9898881E-1,-1.2436593E-1,2.858814E-1,3.0317092E-1,7.7419775E-4,1.4220385E-1,-1.700334E-1,-1.9387369E-1,2.5737584E-1,-1.7743388E-1,2.9786906E-1,-1.9523838E-1,1.7031243E-2,-2.0006558E-1,-7.993296E-2],"split_indices":[92,88,7,6,26,15,1,6,6,54,6,8,6,0,0,0,88,91,0,39,61,7,92,0,86,0,0,0,23,75,0,0,0,0,9,7,6,91,86,0,0,15,0,0,0,0,0,0,0,0,0,0,0,0,0,0,0,0,0],"split_type":[0,0,0,0,0,0,0,0,0,0,0,0,0,0,0,0,0,0,0,0,0,0,0,0,0,0,0,0,0,0,0,0,0,0,0,0,0,0,0,0,0,0,0,0,0,0,0,0,0,0,0,0,0,0,0,0,0,0,0],"sum_hessian":[2.2006348E3,1.923655E3,2.769796E2,1.0346652E3,8.8898987E2,2.5827856E2,1.8701063E1,1.0269832E2,9.3196686E2,1.17406746E2,7.715831E2,2.3537311E2,2.2905457E1,1.59814205E1,2.7196434E0,1.1986685E1,9.071164E1,8.8998706E2,4.1979767E1,6.5276127E0,1.10879135E2,6.3713873E2,1.3444441E2,3.1489484E0,2.3222415E2,1.1947786E1,1.0957669E1,1.4808748E0,8.923076E1,8.574298E2,3.2557304E1,2.9843636E0,3.543249E0,1.23354E0,1.0964559E2,5.357305E2,1.0140822E2,1.049252E2,2.9519201E1,1.1595609E0,1.9893875E0,2.3091736E2,1.3067923E0,1.2147579E0,8.801601E1,1.2320188E1,8.451096E2,1.0832315E2,1.3224401E0,2.861176E1,5.0711877E2,2.7936275E1,7.347194E1,6.3108597E0,9.861434E1,2.8296774E1,1.2224278E0,2.2813934E2,2.778022E0],"tree_param":{"num_deleted":"0","num_feature":"93","num_nodes":"59","size_leaf_vector":"0"}},{"base_weights":[1.465036E-1,5.6684893E-1,-2.3009028E-1,9.06209E-1,-2.567112E-1,-4.6703532E-1,4.3914095E-1,-6.5088093E-1,9.5885384E-1,-5.4381543E-1,7.0342416E-1,-6.639236E-1,-6.92037E-2,-6.6053367E-1,6.2497807E-1,9.87005E-1,3.4180412E-1,-6.5260446E-1,6.11966E-1,-6.207851E-1,9.7800386E-1,-6.714891E-1,-4.59042E-2,9.533912E-1,-3.607908E-1,4.4635765E-2,8.4543437E-1,1.0169786E0,8.536091E-1,8.51224E-1,-3.2936576E-1,-6.6919434E-1,7.309814E-1,8.843112E-1,-5.3345275E-1,4.4524667E-1,1.002521E0,-6.7317593E-1,-3.695516E-1,-5.687125E-1,7.806731E-1,9.9627286E-1,-4.2284933E-1,-4.3120068E-1,9.483938E-1,9.914666E-1,-5.924685E-1,9.1130346E-1,-6.004379E-1,3.111539E-1,1.0183017E0,-3.3106834E-1,9.6194994E-1,-4.6744415E-1,1.0120358E0,-6.178847E-1,7.664679E-1,-6.1588295E-2,9.7278917E-1,-4.063558E-2,6.761144E-1,7.5044066E-2,-5.1720786E-1,2.4389313E-1,1.0109512E0,8.8861597E-1,-5.07371E-1,3.1755865E-1,1.0136142E0,-6.602733E-1,9.634326E-1,-5.8086264E-1,9.6801543E-1],"categories":[],"categories_nodes":[],"categories_segments":[],"categories_sizes":[],"default_left":[1,1,1,1,1,1,0,0,1,1,1,1,1,0,1,1,1,1,1,0,1,1,1,1,1,1,1,1,1,1,1,0,0,1,0,1,0,0,1,0,0,1,0,1,0,1,1,1,0,0,0,0,0,0,0,0,0,0,0,0,0,0,0,0,0,0,0,0,0,0,0,0,0],"id":5,"left_children":[1,3,5,7,9,11,13,-1,15,17,19,21,23,-1,25,27,29,31,33,-1,35,37,39,41,43,45,47,49,51,53,55,-1,-1,57,-1,59,-1,-1,61,-1,-1,63,-1,65,-1,67,69,71,-1,-1,-1,-1,-1,-1,-1,-1,-1,-1,-1,-1,-1,-1,-1,-1,-1,-1,-1,-1,-1,-1,-1,-1,-1],"loss_changes":[3.4255127E2,2.859966E2,1.8123747E2,5.9998474E1,8.284703E1,6.603322E1,6.152296E1,0E0,1.1840088E1,2.9426285E1,2.5804241E1,2.6072388E0,8.395378E1,0E0,3.2755394E1,1.8104248E0,1.1261409E1,5.3433456E0,6.8280797E0,0E0,3.0841064E-1,3.5079956E-2,3.8564708E0,4.109146E0,2.0588411E1,4.3789818E1,1.8232712E1,1.8908691E-1,1.689286E1,4.404114E0,5.0831356E0,0E0,0E0,1.4691315E0,0E0,5.1445097E-1,0E0,0E0,3.876202E-1,0E0,0E0,4.2598724E-1,0E0,2.1404465E1,0E0,1.13658905E-1,5.2186728E0,1.5625626E1,0E0,0E0,0E0,0E0,0E0,0E0,0E0,0E0,0E0,0E0,0E0,0E0,0E0,0E0,0E0,0E0,0E0,0E0,0E0,0E0,0E0,0E0,0E0,0E0,0E0],"parents":[2147483647,0,0,1,1,2,2,3,3,4,4,5,5,6,6,8,8,9,9,10,10,11,11,12,12,14,14,15,15,16,16,17,17,18,18,20,20,21,21,22,22,23,23,24,24,25,25,26,26,27,27,28,28,29,29,30,30,33,33,35,35,38,38,41,41,43,43,45,45,46,46,47,47],"right_children":[2,4,6,8,10,12,14,-1,16,18,20,22,24,-1,26,28,30,32,34,-1,36,38,40,42,44,46,48,50,52,54,56,-1,-1,58,-1,60,-1,-1,62,-1,-1,64,-1,66,-1,68,70,72,-1,-1,-1,-1,-1,-1,-1,-1,-1,-1,-1,-1,-1,-1,-1,-1,-1,-1,-1,-1,-1,-1,-1,-1,-1],"split_conditions":[-1.5358545E1,4.132027E7,1.3009338E7,5.6877565E0,3.4451325E5,2.5562039E2,5.6175E2,-1.952643E-1,-2.0029964E1,1.4991137E0,2.0666666E1,3.0425785E1,3.0665002E2,-1.9816011E-1,8.601895E1,-4.1940544E1,2.0690219E4,2.38E1,-4.326693E7,-1.8623555E-1,2.2807556E1,2.9214874E1,-1.4413388E2,9.782609E-1,7.984257E2,2.0330597E2,-6.89155E6,6.0802164E0,2.7862595E1,-1.8908766E4,1.7288E2,-2.0075831E-1,2.1929443E-1,1.9567919E1,-1.6003583E-1,2.45E1,3.0075634E-1,-2.0195279E-1,2.9794125E1,-1.7061375E-1,2.3420194E-1,4.9738693E0,-1.268548E-1,-7.5011644E0,2.8451815E-1,-1.0359489E-1,2.421935E2,8.7875E1,-1.8013138E-1,9.334617E-2,3.0549052E-1,-9.932051E-2,2.88585E-1,-1.4023325E-1,3.0361077E-1,-1.8536541E-1,2.2994038E-1,-1.847649E-2,2.9183677E-1,-1.2190674E-2,2.0283432E-1,2.251322E-2,-1.5516236E-1,7.316794E-2,3.0328536E-1,2.665848E-1,-1.5221131E-1,9.52676E-2,3.0408427E-1,-1.98082E-1,2.890298E-1,-1.742588E-1,2.9040465E-1],"split_indices":[91,7,7,15,92,88,92,0,91,35,25,60,3,0,88,91,6,30,6,0,48,60,61,34,51,15,6,15,15,11,0,0,0,13,0,0,0,0,60,0,0,26,0,82,0,20,17,63,0,0,0,0,0,0,0,0,0,0,0,0,0,0,0,0,0,0,0,0,0,0,0,0,0],"split_type":[0,0,0,0,0,0,0,0,0,0,0,0,0,0,0,0,0,0,0,0,0,0,0,0,0,0,0,0,0,0,0,0,0,0,0,0,0,0,0,0,0,0,0,0,0,0,0,0,0,0,0,0,0,0,0,0,0,0,0,0,0,0,0,0,0,0,0,0,0,0,0,0,0],"sum_hessian":[2.1621204E3,1.021472E3,1.1406484E3,7.233179E2,2.981541E2,8.4261725E2,2.9803122E2,2.3283796E1,7.0003406E2,2.298553E2,6.8298805E1,5.632125E2,2.7940472E2,4.2714954E1,2.5531628E2,6.6891705E2,3.1117025E1,2.104791E2,1.93762E1,1.151325E1,5.6785553E1,5.5631586E2,6.896702E0,6.148996E1,2.1791475E2,7.061847E1,1.8469781E2,5.407816E2,1.2813542E2,1.7537638E1,1.3579387E1,2.0849548E2,1.9836242E0,1.58383E1,3.5379002E0,3.341241E0,5.3444313E1,5.520025E2,4.3133435E0,4.41573E0,2.4809723E0,5.9899666E1,1.5902947E0,2.0742952E2,1.0485235E1,2.8181057E1,4.2437412E1,1.7700383E2,7.6939793E0,1.4537175E0,5.3932794E2,1.0564096E1,1.1757132E2,1.698994E0,1.5838644E1,1.1094499E1,2.484888E0,1.380764E0,1.4457536E1,1.341635E0,1.9996058E0,1.1979774E0,3.115366E0,1.4833215E0,5.8416344E1,1.07361555E1,1.9669336E2,1.3847277E0,2.679633E1,4.121685E1,1.2205623E0,6.1425695E0,1.7086127E2],"tree_param":{"num_deleted":"0","num_feature":"93","num_nodes":"73","size_leaf_vector":"0"}},{"base_weights":[-3.821988E-1,-5.7863826E-1,1.6832012E-1,-6.0060483E-1,-3.3978772E-1,-5.102134E-1,3.225545E-1,7.067566E-2,-6.013525E-1,-5.381361E-1,1.580612E-1,7.392865E-1,-5.6591666E-1,4.158879E-1,-5.2296895E-1,-5.6127506E-1,-6.175514E-1,-5.5641574E-1,2.9833803E-1,6.346947E-1,-1.8996887E-1,-6.0407245E-1,6.1435646E-1,-3.280378E-1,5.122842E-1,6.0654444E-1,-6.215778E-1,-6.182997E-1,8.492384E-1,-6.2084585E-1,-4.4225344E-1,-1.070762E-1,-5.940222E-1,-4.3746623E-1,8.1722015E-1,-5.556614E-1,7.641404E-1,1.0109115E-1,-6.1555576E-1,-4.474362E-1,6.788792E-1,5.702459E-1,-2.2198194E-1,1.1298048E0,-5.5266505E-1,-5.9373325E-1,6.5310234E-1,5.941602E-1,-4.9776593E-1,-6.123555E-1,-4.0716752E-2,9.415457E-2,-6.1902803E-1,9.867321E-1,1.27900345E-2,7.025937E-1,-5.3404784E-1,6.056194E-1,-6.3602746E-1,-5.4828995E-1,7.6984036E-1],"categories":[],"categories_nodes":[],"categories_segments":[],"categories_sizes":[],"default_left":[1,1,1,1,1,1,1,0,1,1,1,0,1,1,1,1,1,1,0,1,1,1,0,1,1,0,0,0,1,0,1,1,1,0,0,1,1,0,0,1,0,1,1,0,0,0,0,0,0,0,0,0,0,0,0,0,0,0,0,0,0],"id":6,"left_children":[1,3,5,7,9,11,13,-1,15,17,19,-1,21,23,25,27,29,31,-1,33,35,37,-1,39,41,-1,-1,-1,43,-1,45,47,49,-1,-1,51,53,-1,-1,55,-1,57,59,-1,-1,-1,-1,-1,-1,-1,-1,-1,-1,-1,-1,-1,-1,-1,-1,-1,-1],"loss_changes":[1.820594E2,6.303528E0,4.655455E1,6.1190796E-1,1.0627877E1,6.1594048E0,2.8768261E1,0E0,3.892212E-1,1.3368607E0,5.294572E0,0E0,3.9527302E0,2.3573296E1,4.432249E0,2.7648872E1,1.8582153E-1,1.2085838E0,0E0,2.978603E0,6.9830856E0,6.901512E-1,0E0,4.8782673E0,1.2440277E1,0E0,0E0,0E0,5.9440403E0,0E0,3.4045455E0,2.2228773E0,6.775532E-1,0E0,0E0,6.416631E-1,9.2885256E-1,0E0,0E0,3.823475E0,0E0,1.1839607E1,7.50593E0,0E0,0E0,0E0,0E0,0E0,0E0,0E0,0E0,0E0,0E0,0E0,0E0,0E0,0E0,0E0,0E0,0E0,0E0],"parents":[2147483647,0,0,1,1,2,2,3,3,4,4,5,5,6,6,8,8,9,9,10,10,12,12,13,13,14,14,15,15,16,16,17,17,19,19,20,20,21,21,23,23,24,24,28,28,30,30,31,31,32,32,35,35,36,36,39,39,41,41,42,42],"right_children":[2,4,6,8,10,12,14,-1,16,18,20,-1,22,24,26,28,30,32,-1,34,36,38,-1,40,42,-1,-1,-1,44,-1,46,48,50,-1,-1,52,54,-1,-1,56,-1,58,60,-1,-1,-1,-1,-1,-1,-1,-1,-1,-1,-1,-1,-1,-1,-1,-1,-1,-1],"split_conditions":[4.4881603E1,2.9591652E1,3.785E3,-1.4071005E1,8.158807E0,2.315013E6,3.4497652E7,2.12027E-2,-1.4158732E7,8.0495E2,2.2258375E6,2.2178595E-1,1.75115E3,-2.05071E1,8.7875E1,-1.5638152E7,1.4903107E1,1.6257127E-17,8.950141E-2,1.235099E6,2.2384006E2,2.5458893E1,1.8430695E-1,1.238145E3,1E2,1.8196334E-1,-1.8647334E-1,-1.8548992E-1,6.5440384E1,-1.8625376E-1,1.1124358E1,-4.9818956E5,3.6089603E1,-1.3123988E-1,2.4516605E-1,7.3512146E1,8.4E1,3.0327344E-2,-1.8466674E-1,-6.055E-2,2.0366377E-1,6.9433876E1,1.2229751E1,3.3894145E-1,-1.6579953E-1,-1.7811999E-1,1.959307E-1,1.7824806E-1,-1.4932978E-1,-1.8370664E-1,-1.2215027E-2,2.8246371E-2,-1.8570842E-1,2.9601964E-1,3.8370106E-3,2.1077812E-1,-1.6021436E-1,1.8168582E-1,-1.9080825E-1,-1.6448699E-1,2.3095211E-1],"split_indices":[91,91,4,89,26,7,7,0,6,2,7,0,56,75,63,6,26,74,0,7,50,71,0,0,57,0,0,0,13,0,91,6,35,0,0,13,0,0,0,5,0,58,37,0,0,0,0,0,0,0,0,0,0,0,0,0,0,0,0,0,0],"split_type":[0,0,0,0,0,0,0,0,0,0,0,0,0,0,0,0,0,0,0,0,0,0,0,0,0,0,0,0,0,0,0,0,0,0,0,0,0,0,0,0,0,0,0,0,0,0,0,0,0,0,0,0,0,0,0,0,0,0,0,0,0],"sum_hessian":[1.6815953E3,1.239322E3,4.4227338E2,1.1335566E3,1.0576538E2,8.1484634E1,3.6078873E2,1.1570466E0,1.1323995E3,7.5574684E1,3.0190697E1,2.9538522E0,7.8530785E1,3.2537973E2,3.540901E1,3.3621774E2,7.961818E2,7.42861E1,1.2885809E0,1.2393667E1,1.7797028E1,7.654445E1,1.9863336E0,3.704981E1,2.8832993E2,2.4294856E0,3.2979527E1,3.2369302E2,1.25247135E1,7.790002E2,1.7181648E1,6.0341783E0,6.825193E1,1.5997779E0,1.079389E1,1.3167704E1,4.629325E0,1.1014822E0,7.544297E1,3.361897E1,3.4308405E0,2.674419E2,2.0888033E1,1.0597834E1,1.9268789E0,1.5496541E1,1.685106E0,1.9726801E0,4.061498E0,6.595969E1,2.2922401E0,1.1267878E0,1.20409155E1,3.3296268E0,1.2996985E0,1.8564892E0,3.1762478E1,2.6030646E2,7.1354256E0,1.605361E1,4.8344235E0],"tree_param":{"num_deleted":"0","num_feature":"93","num_nodes":"61","size_leaf_vector":"0"}},{"base_weights":[2.0157775E-1,2.6735476E-1,-6.1486465E-1,8.72959E-2,7.741565E-1,6.679682E-1,-1.2695216E-1,7.948555E-1,-5.7659626E-1,-2.5662816E-1,7.6590425E-1,-3.9685088E-1,2.0875444E-1,-3.4276158E-1,7.985426E-1,7.395534E-1,-5.9648645E-1,-5.311569E-1,7.875075E-1,4.4985157E-1,-4.655889E-1,7.266928E-1,-1.6945086E-1,8.2227904E-1,6.062893E-1,8.116533E-1,5.7324845E-1,8.2343984E-1,-5.236681E-1,4.6900105E-1,-5.106979E-1,8.9219147E-1,-2.5857395E-1,7.834423E-1,-4.389203E-1,-5.623812E-1,8.17989E-1],"categories":[],"categories_nodes":[],"categories_segments":[],"categories_sizes":[],"default_left":[1,1,0,1,1,1,1,1,0,1,1,1,1,0,1,0,0,0,1,0,1,1,1,0,1,0,0,0,0,0,0,0,0,0,0,0,0],"id":7,"left_children":[1,3,-1,5,7,9,11,13,-1,15,17,19,21,-1,23,-1,-1,-1,25,27,29,31,33,-1,35,-1,-1,-1,-1,-1,-1,-1,-1,-1,-1,-1,-1],"loss_changes":[1.0731614E2,1.6849654E2,0E0,1.6978761E2,1.3993652E1,3.3502197E1,9.044266E1,2.2754517E0,0E0,1.2621546E1,9.744476E0,3.2404068E1,8.731408E1,0E0,1.6735535E0,0E0,0E0,0E0,1.230484E0,1.572256E1,2.1829773E1,3.089273E1,6.660924E1,0E0,1.4343412E1,0E0,0E0,0E0,0E0,0E0,0E0,0E0,0E0,0E0,0E0,0E0,0E0],"parents":[2147483647,0,0,1,1,3,3,4,4,5,5,6,6,7,7,9,9,10,10,11,11,12,12,14,14,18,18,19,19,20,20,21,21,22,22,24,24],"right_children":[2,4,-1,6,8,10,12,14,-1,16,18,20,22,-1,24,-1,-1,-1,26,28,30,32,34,-1,36,-1,-1,-1,-1,-1,-1,-1,-1,-1,-1,-1,-1],"split_conditions":[1.480493E6,-9.216913E5,-1.844594E-1,1.1272385E0,3.9748926E2,-3.622805E7,5.625847E2,3.6550003E1,-1.7297888E-1,-5.8947276E7,-5.2643837E1,6.0802164E0,1.0300493E1,-1.0282848E-1,2.109E2,2.2186603E-1,-1.7894594E-1,-1.5934707E-1,9.904537E-1,7.569625E4,2.525288E1,1.0578374E7,4.6E2,2.4668372E-1,3.767E2,2.43496E-1,1.7197454E-1,2.4703196E-1,-1.5710044E-1,1.4070033E-1,-1.5320937E-1,2.6765746E-1,-7.757219E-2,2.3503271E-1,-1.316761E-1,-1.6871437E-1,2.453967E-1],"split_indices":[6,6,0,35,51,6,15,0,0,6,75,15,35,0,0,0,0,0,35,92,17,7,4,0,0,0,0,0,0,0,0,0,0,0,0,0,0],"split_type":[0,0,0,0,0,0,0,0,0,0,0,0,0,0,0,0,0,0,0,0,0,0,0,0,0,0,0,0,0,0,0,0,0,0,0,0,0],"sum_hessian":[1.9942609E3,1.8461941E3,1.480668E2,1.3630837E3,4.8311035E2,3.6680945E2,9.962743E2,4.762242E2,6.886115E0,3.4977055E1,3.318324E2,5.52166E2,4.4410822E2,1.2414267E0,4.749828E2,8.598207E0,2.6378847E1,5.0498767E0,3.2678253E2,4.1044373E1,5.1112167E2,1.8704099E2,2.5706723E2,4.1986725E2,5.511556E1,2.911799E2,3.560261E1,2.9773106E1,1.1271269E1,2.3101292E1,4.880204E2,1.6022235E2,2.6818636E1,5.6249912E1,2.0081732E2,8.198716E0,4.691684E1],"tree_param":{"num_deleted":"0","num_feature":"93","num_nodes":"37","size_leaf_vector":"0"}},{"base_weights":[1.2438279E-1,4.6989244E-1,-2.022941E-1,7.3257965E-1,-2.3062645E-1,-4.1959035E-1,3.656959E-1,-6.0046524E-1,7.7301705E-1,-6.142533E-1,3.449798E-1,-6.155338E-1,-5.1556766E-2,-6.095972E-1,5.13183E-1,8.0026007E-1,3.815629E-1,3.5725597E-2,-6.1925316E-1,-5.9921324E-1,6.2970763E-1,-6.23082E-1,-5.940458E-2,7.662032E-1,-3.0445325E-1,6.544005E-1,-6.120018E-2,8.1896067E-1,7.034732E-1,7.536319E-1,-3.2042643E-1,7.020551E-1,-4.0128255E-1,-6.2484074E-1,-3.3409795E-1,-5.3165317E-1,6.323149E-1,8.1459254E-1,-1.4911282E-1,-4.6151194E-1,1.9863907E-1,2.5973284E-1,7.773563E-1,-3.3391017E-1,7.066931E-1,2.2310619E-1,8.2026577E-1,-5.3900146E-1,7.7474594E-1,-2.201791E-1,8.3172536E-1,-5.9288013E-1,6.846358E-1,-4.110852E-1,7.368339E-1,-4.9213699E-1,-3.6904935E-3,1.03551365E-1,-4.882689E-1,-4.5011905E-1,2.510087E-1,-5.520734E-1,7.5682783E-1,-3.598576E-1,5.6669563E-1,7.9566556E-1,-4.6551463E-1,-5.7884777E-1,7.9970616E-1,-5.395137E-1,4.730204E-1,1.4470491E-1,7.6444757E-1],"categories":[],"categories_nodes":[],"categories_segments":[],"categories_sizes":[],"default_left":[1,1,1,1,1,1,0,0,1,1,0,1,1,0,1,1,1,0,0,0,1,1,1,1,1,1,1,1,1,1,1,1,1,0,1,0,0,0,1,1,1,1,1,1,1,0,0,0,0,0,0,0,0,0,0,0,0,0,0,0,0,0,0,0,0,0,0,0,0,0,0,0,0],"id":8,"left_children":[1,3,5,7,9,11,13,-1,15,17,19,21,23,-1,25,27,29,-1,-1,-1,31,33,35,37,39,41,43,45,47,49,51,53,55,-1,57,-1,-1,-1,59,61,63,65,67,69,71,-1,-1,-1,-1,-1,-1,-1,-1,-1,-1,-1,-1,-1,-1,-1,-1,-1,-1,-1,-1,-1,-1,-1,-1,-1,-1,-1,-1],"loss_changes":[2.1868471E2,1.7342052E2,1.231008E2,3.738736E1,5.7078484E1,5.196041E1,4.0039368E1,0E0,6.789032E0,5.2549744E-1,2.82379E1,1.9375916E0,5.2262295E1,0E0,1.954317E1,5.479431E-1,1.2046129E1,0E0,0E0,0E0,6.257103E0,2.7053833E-2,2.7549217E0,2.7660866E0,1.5331388E1,9.167618E0,1.03639765E1,2.1697998E-1,9.950981E0,2.4522343E0,4.885311E0,3.2149773E0,2.1092081E-1,0E0,3.8494664E-1,0E0,0E0,0E0,5.758773E-1,1.6668514E1,9.78001E0,1.8780718E1,4.909958E0,6.2890005E0,3.111825E-1,0E0,0E0,0E0,0E0,0E0,0E0,0E0,0E0,0E0,0E0,0E0,0E0,0E0,0E0,0E0,0E0,0E0,0E0,0E0,0E0,0E0,0E0,0E0,0E0,0E0,0E0,0E0,0E0],"parents":[2147483647,0,0,1,1,2,2,3,3,4,4,5,5,6,6,8,8,9,9,10,10,11,11,12,12,14,14,15,15,16,16,20,20,21,21,22,22,23,23,24,24,25,25,26,26,27,27,28,28,29,29,30,30,31,31,32,32,34,34,38,38,39,39,40,40,41,41,42,42,43,43,44,44],"right_children":[2,4,6,8,10,12,14,-1,16,18,20,22,24,-1,26,28,30,-1,-1,-1,32,34,36,38,40,42,44,46,48,50,52,54,56,-1,58,-1,-1,-1,60,62,64,66,68,70,72,-1,-1,-1,-1,-1,-1,-1,-1,-1,-1,-1,-1,-1,-1,-1,-1,-1,-1,-1,-1,-1,-1,-1,-1,-1,-1,-1,-1],"split_conditions":[-1.5358545E1,4.132027E7,1.3009338E7,5.6877565E0,2.1975E1,2.5562039E2,5.6175E2,-1.8013957E-1,-2.1670427E1,-8.775E-2,8.24225E4,3.0425785E1,3.0665002E2,-1.8287916E-1,2.0710902E0,-4.1940544E1,2.0690219E4,1.071768E-2,-1.8577595E-1,-1.7976397E-1,3.5944196E2,2.9214874E1,-1.4413388E2,8.829932E1,1.0589191E1,6.797554E1,1.3543501E3,6.0802164E0,2.0739096E1,-3.1570242E4,1.7123001E2,-9.357655E1,1.91855E5,-1.8745223E-1,-1.92E-2,-1.5949595E-1,1.8969448E-1,2.4437778E-1,2.5762177E2,7.984257E2,6.403092E-1,1.9743288E2,8.409037E0,3.2799608E7,-2.895E-2,6.693186E-2,2.4607974E-1,-1.6170044E-1,2.324238E-1,-6.605373E-2,2.4951762E-1,-1.7786404E-1,2.0539075E-1,-1.23325564E-1,2.2105017E-1,-1.476411E-1,-1.1071481E-3,3.106541E-2,-1.4648068E-1,-1.3503572E-1,7.530261E-2,-1.6562203E-1,2.2704835E-1,-1.0795728E-1,1.7000869E-1,2.3869967E-1,-1.396544E-1,-1.7365433E-1,2.3991185E-1,-1.6185412E-1,1.4190613E-1,4.3411475E-2,2.2933428E-1],"split_indices":[91,7,7,15,56,88,92,0,91,5,92,60,3,0,83,91,6,0,0,0,11,60,61,91,36,88,31,15,15,11,0,91,4,0,5,0,0,0,67,51,44,15,58,7,5,0,0,0,0,0,0,0,0,0,0,0,0,0,0,0,0,0,0,0,0,0,0,0,0,0,0,0,0],"split_type":[0,0,0,0,0,0,0,0,0,0,0,0,0,0,0,0,0,0,0,0,0,0,0,0,0,0,0,0,0,0,0,0,0,0,0,0,0,0,0,0,0,0,0,0,0,0,0,0,0,0,0,0,0,0,0,0,0,0,0,0,0,0,0,0,0,0,0,0,0,0,0,0,0],"sum_hessian":[1.9356494E3,9.404959E2,9.951535E2,6.83969E2,2.5652692E2,7.199739E2,2.7517957E2,1.9729353E1,6.642396E2,1.5389362E2,1.0263329E2,4.6939337E2,2.5058054E2,3.5735687E1,2.3944388E2,6.2004376E2,4.419589E1,1.1278586E0,1.5276576E2,2.3523132E1,7.911016E1,4.6298895E2,6.4044056E0,5.8709427E1,1.9187111E2,1.9207991E2,4.7363976E1,5.1338824E2,1.0665554E2,2.8837727E1,1.5358164E1,7.422092E1,4.8892426E0,4.590331E2,3.9558582E0,3.943509E0,2.4608965E0,5.5866043E1,2.8433838E0,1.4628542E2,4.5585697E1,4.6365807E1,1.457141E2,3.536839E1,1.1995585E1,1.4978129E0,5.118904E2,5.4301944E0,1.0122534E2,2.0058396E0,2.6831886E1,1.2405397E1,2.952767E0,1.9208728E0,7.230004E1,3.7862473E0,1.1029954E0,1.1160449E0,2.8398135E0,1.5513599E0,1.292024E0,1.3667311E2,9.612307E0,1.8116945E1,2.7468752E1,2.6607035E1,1.9758772E1,1.9587134E0,1.4375539E2,2.8450647E1,6.9177427E0,1.4445636E0,1.0551022E1],"tree_param":{"num_deleted":"0","num_feature":"93","num_nodes":"73","size_leaf_vector":"0"}},{"base_weights":[-3.4710553E-1,-5.42812E-1,1.4476904E-1,-5.6578106E-1,-3.059021E-1,-5.162929E-1,2.6436773E-1,-5.6664914E-1,9.014155E-2,-4.9798504E-1,1.2927763E-1,6.566021E-1,-5.8517426E-1,5.933709E-2,5.744897E-1,-5.249076E-1,-5.836262E-1,-9.557406E-2,-5.481367E-1,5.317407E-1,-1.6937183E-1,-5.304778E-1,2.164054E-1,-4.605076E-1,6.485075E-1,-5.843357E-1,6.3100517E-1,-5.874511E-1,-3.902408E-1,-4.8651692E-1,5.9807247E-1,-5.7091504E-1,2.7601606E-1,-4.218754E-1,7.009925E-1,-5.185484E-1,6.1647093E-1,5.1823425E-1,-5.9947973E-1,3.5214236E-1,-4.5581308E-1,-5.410982E-1,1.154029E-1,6.908585E-1,-5.7086515E-1,8.673834E-1,-5.51533E-1,-5.51913E-1,5.3352123E-1,-1.8884946E-2,-5.831041E-1,1.1479501E-1,-5.8638084E-1,7.9320407E-1,-6.829352E-3,-6.1423624E-1,-1.0273937E-2,-8.579517E-3,5.4938173E-1,5.6826365E-1,-5.72938E-1,7.150545E-1,-4.483981E-1],"categories":[],"categories_nodes":[],"categories_segments":[],"categories_sizes":[],"default_left":[1,1,0,1,1,1,1,1,0,1,1,0,0,0,1,1,1,1,1,1,1,1,1,1,1,0,1,0,1,0,0,1,0,0,0,1,1,0,1,1,1,0,0,1,0,0,0,0,0,0,0,0,0,0,0,0,0,0,0,0,0,0,0],"id":9,"left_children":[1,3,5,7,9,11,13,15,-1,17,19,-1,-1,21,23,25,27,29,31,33,35,37,39,41,43,-1,45,-1,47,-1,-1,49,-1,-1,-1,51,53,-1,55,57,59,-1,-1,61,-1,-1,-1,-1,-1,-1,-1,-1,-1,-1,-1,-1,-1,-1,-1,-1,-1,-1,-1],"loss_changes":[1.3531232E2,5.2967224E0,3.181261E1,5.721741E-1,7.672719E0,5.370516E0,2.1580164E1,3.4143066E-1,0E0,1.2261763E0,3.5356002E0,0E0,0E0,1.9175995E1,1.0654289E1,1.9206482E1,2.447815E-1,2.5232346E0,1.211132E0,2.3055565E0,5.0430984E0,3.4627514E0,1.5051096E1,5.083201E-1,6.930668E0,0E0,4.36104E0,0E0,2.5956502E0,0E0,0E0,3.586483E-1,0E0,0E0,0E0,6.026652E-1,6.391001E-1,0E0,3.5307026E-1,9.705189E0,3.6663408E0,0E0,0E0,3.704956E0,0E0,0E0,0E0,0E0,0E0,0E0,0E0,0E0,0E0,0E0,0E0,0E0,0E0,0E0,0E0,0E0,0E0,0E0,0E0],"parents":[2147483647,0,0,1,1,2,2,3,3,4,4,5,5,6,6,7,7,9,9,10,10,13,13,14,14,15,15,16,16,17,17,18,18,19,19,20,20,21,21,22,22,23,23,24,24,26,26,28,28,31,31,35,35,36,36,38,38,39,39,40,40,43,43],"right_children":[2,4,6,8,10,12,14,16,-1,18,20,-1,-1,22,24,26,28,30,32,34,36,38,40,42,44,-1,46,-1,48,-1,-1,50,-1,-1,-1,52,54,-1,56,58,60,-1,-1,62,-1,-1,-1,-1,-1,-1,-1,-1,-1,-1,-1,-1,-1,-1,-1,-1,-1,-1,-1],"split_conditions":[4.4881603E1,2.9591652E1,5.548E3,5.105954E1,8.158807E0,2.315013E6,5.778634E2,-1.4158732E7,2.7042465E-2,3.4270743E-1,2.2258375E6,1.9698064E-1,-1.7555228E-1,6.44E4,-6.962855E6,-1.5638152E7,1.4903107E1,3.8169787E0,7.8532275E5,1.235099E6,2.2384006E2,4.9415368E-1,3.4497652E7,2.0711805E1,3.6986053E1,-1.7530072E-1,6.5440384E1,-1.7623533E-1,1.1124358E1,-1.4595509E-1,1.7942175E-1,-7.4318875E5,8.280482E-2,-1.2656263E-1,2.1029776E-1,-3.66E-2,8.22E1,1.5547028E-1,2.0227252E2,1.0477884E7,8.7875E1,-1.6232947E-1,3.462087E-2,6.9433876E1,-1.7125955E-1,2.6021504E-1,-1.654599E-1,-1.6557391E-1,1.6005638E-1,-5.665484E-3,-1.7493123E-1,3.4438502E-2,-1.7591426E-1,2.3796123E-1,-2.0488058E-3,-1.8427087E-1,-3.0821813E-3,-2.5738552E-3,1.6481453E-1,1.704791E-1,-1.7188141E-1,2.1451636E-1,-1.3451944E-1],"split_indices":[91,91,92,87,26,7,41,6,0,44,7,0,0,92,6,6,26,87,10,7,50,45,7,87,60,0,13,0,91,0,0,11,0,0,0,5,3,0,61,7,63,0,0,58,0,0,0,0,0,0,0,0,0,0,0,0,0,0,0,0,0,0,0],"split_type":[0,0,0,0,0,0,0,0,0,0,0,0,0,0,0,0,0,0,0,0,0,0,0,0,0,0,0,0,0,0,0,0,0,0,0,0,0,0,0,0,0,0,0,0,0,0,0,0,0,0,0,0,0,0,0,0,0,0,0,0,0,0,0],"sum_hessian":[1.4038353E3,1.004187E3,3.996483E2,9.141679E2,9.0019104E1,6.0718723E1,3.3892953E2,9.130956E2,1.0723362E0,6.2352962E1,2.7666142E1,2.8947768E0,5.7823948E1,2.0475284E2,1.3417671E2,2.732285E2,6.3986707E2,7.2317796E0,5.512118E1,1.1452352E1,1.621379E1,4.2559227E1,1.621936E2,8.606711E0,1.2557001E2,2.6033838E2,1.2890102E1,6.254587E2,1.4408395E1,4.8160424E0,2.4157372E0,5.39377E1,1.1834838E0,1.5012517E0,9.951099E0,1.1461288E1,4.7525024E0,2.2254663E0,4.033376E1,1.3534114E2,2.685246E1,7.603198E0,1.0035131E0,1.2177401E2,3.795996E0,1.0964841E1,1.9252617E0,1.2604887E1,1.8035073E0,1.2203118E0,5.271739E1,1.0417979E0,1.041949E1,3.4902697E0,1.2622325E0,3.9306847E1,1.0269111E0,4.8181232E1,8.715991E1,2.3606296E0,2.449183E1,1.1960611E2,2.167898E0],"tree_param":{"num_deleted":"0","num_feature":"93","num_nodes":"63","size_leaf_vector":"0"}},{"base_weights":[1.7660138E-1,2.3241629E-1,-5.7984084E-1,7.618126E-2,6.704048E-1,5.7552725E-1,-1.09860525E-1,6.8811476E-1,-5.273505E-1,-2.286623E-1,6.5575945E-1,-4.246399E-1,1.2736326E-1,-3.054713E-1,6.913778E-1,6.4366597E-1,-5.587544E-1,-4.8265865E-1,6.737097E-1,3.8314557E-1,-5.126225E-1,4.922478E-1,-1.8943635E-1,-9.388066E-2,6.939786E-1,6.990683E-1,4.834887E-1,6.974969E-1,-4.797937E-1,3.5179934E-1,-5.7624215E-1,7.235227E-1,-5.822381E-1,6.3796484E-1,-4.0475425E-1,7.065682E-1,5.072322E-1],"categories":[],"categories_nodes":[],"categories_segments":[],"categories_sizes":[],"default_left":[1,1,0,1,1,1,1,1,0,1,1,1,1,0,1,0,0,0,1,0,1,1,0,0,1,0,0,0,0,0,0,0,0,0,0,0,0],"id":10,"left_children":[1,3,-1,5,7,9,11,13,-1,15,17,19,21,-1,23,-1,-1,-1,25,27,29,31,33,-1,35,-1,-1,-1,-1,-1,-1,-1,-1,-1,-1,-1,-1],"loss_changes":[7.3144165E1,1.101964E2,0E0,1.1048759E2,9.345657E0,2.097805E1,6.478377E1,1.5655365E0,0E0,9.005467E0,6.3285522E0,2.6688553E1,5.7322636E1,0E0,9.1612244E-1,0E0,0E0,0E0,1.0591583E0,1.0421534E1,1.8712204E1,5.7665775E1,4.7598335E1,0E0,6.1828613E-1,0E0,0E0,0E0,0E0,0E0,0E0,0E0,0E0,0E0,0E0,0E0,0E0],"parents":[2147483647,0,0,1,1,3,3,4,4,5,5,6,6,7,7,9,9,10,10,11,11,12,12,14,14,18,18,19,19,20,20,21,21,22,22,24,24],"right_children":[2,4,-1,6,8,10,12,14,-1,16,18,20,22,-1,24,-1,-1,-1,26,28,30,32,34,-1,36,-1,-1,-1,-1,-1,-1,-1,-1,-1,-1,-1,-1],"split_conditions":[1.480493E6,-9.216913E5,-1.7395225E-1,1.1325562E0,3.9748926E2,-3.622805E7,3.1762076E2,3.6550003E1,-1.5820515E-1,-5.8947276E7,-5.2643837E1,6.0802164E0,1.0300493E1,-9.16414E-2,-3.688323E5,1.930998E-1,-1.6762632E-1,-1.4479761E-1,9.766571E-1,7.569625E4,2.2375E1,1.3036668E7,6.4475E2,-2.8164199E-2,1.452598E0,2.097205E-1,1.4504662E-1,2.0924908E-1,-1.4393811E-1,1.05539806E-1,-1.7287265E-1,2.1705683E-1,-1.7467143E-1,1.9138946E-1,-1.2142628E-1,2.1197046E-1,1.5216966E-1],"split_indices":[6,6,0,35,51,6,15,0,0,6,75,15,35,0,9,0,0,0,35,92,32,7,92,0,39,0,0,0,0,0,0,0,0,0,0,0,0],"split_type":[0,0,0,0,0,0,0,0,0,0,0,0,0,0,0,0,0,0,0,0,0,0,0,0,0,0,0,0,0,0,0,0,0,0,0,0,0],"sum_hessian":[1.7282303E3,1.6101187E3,1.181116E2,1.1876467E3,4.2247192E2,3.218068E2,8.6583997E2,4.167356E2,5.7363496E0,2.9025549E1,2.9278122E2,3.717559E2,4.940841E2,1.0609475E0,4.1567465E2,7.707396E0,2.1318153E1,4.142956E0,2.8863828E2,3.6184444E1,3.3557144E2,2.2935872E2,2.647254E2,1.2563378E0,4.144183E2,2.523254E2,3.631288E1,2.6663275E1,9.521172E0,2.269377E1,3.1287766E2,1.8900374E2,4.0354984E1,5.4259552E1,2.1046584E2,3.85637E2,2.8781324E1],"tree_param":{"num_deleted":"0","num_feature":"93","num_nodes":"37","size_leaf_vector":"0"}},{"base_weights":[1.0967723E-1,4.125891E-1,-1.81553E-1,6.3608253E-1,-2.1482134E-1,-3.8533476E-1,3.2187265E-1,-5.5949295E-1,6.6978806E-1,-5.782595E-1,2.8896987E-1,-5.815452E-1,-4.351938E-2,-5.75014E-1,4.469581E-1,6.9616616E-1,3.6253235E-1,8.747561E-2,-5.843974E-1,-5.6557083E-1,5.3027093E-1,-5.8796984E-1,2.4263306E-2,6.615062E-1,-2.634744E-1,5.693638E-1,-5.2449886E-2,1.7520276E-1,6.9728994E-1,6.5883774E-1,-3.1960416E-1,5.9588665E-1,-2.9724947E-1,-5.897761E-1,-8.110848E-2,-4.2439675E-1,5.1061285E-1,-1.305526E-1,7.0458543E-1,-3.5354725E-1,5.284471E-1,2.3334256E-1,6.717005E-1,-2.7985945E-1,6.7547077E-1,7.1154064E-1,6.151725E-1,1.8341348E-2,7.134423E-1,-5.6101656E-1,5.754854E-1,6.60697E-1,-5.1545803E-3,2.3188506E-1,-4.715352E-1,-4.0997472E-1,2.4040118E-1,-4.2050177E-1,6.8594044E-1,9.752834E-1,-3.124694E-1,6.534769E-1,-5.046461E-1,6.9751674E-1,-4.6889633E-1,-4.6498224E-1,3.8793248E-1],"categories":[],"categories_nodes":[],"categories_segments":[],"categories_sizes":[],"default_left":[1,1,1,1,1,1,0,0,1,1,0,1,1,0,1,1,1,0,0,0,1,1,1,1,1,1,1,0,1,1,1,1,1,0,0,0,0,1,0,1,1,1,1,1,0,0,0,0,0,0,0,0,0,0,0,0,0,0,0,0,0,0,0,0,0,0,0],"id":11,"left_children":[1,3,5,7,9,11,13,-1,15,17,19,21,23,-1,25,27,29,-1,-1,-1,31,33,35,37,39,41,43,-1,45,47,49,51,53,-1,-1,-1,-1,55,-1,57,59,61,63,65,-1,-1,-1,-1,-1,-1,-1,-1,-1,-1,-1,-1,-1,-1,-1,-1,-1,-1,-1,-1,-1,-1,-1],"loss_changes":[1.4665799E2,1.1438675E2,8.710286E1,2.4594666E1,3.9487675E1,4.0482857E1,2.7726036E1,0E0,4.488922E0,5.6225204E-1,1.8995232E1,1.507431E0,3.4499447E1,0E0,1.3199997E1,1.9259644E-1,9.980802E0,0E0,0E0,0E0,4.0441017E0,2.997589E-1,1.3047243E0,1.8976803E0,1.2272175E1,5.7962914E0,7.3610954E0,0E0,1.8972778E-1,1.1769667E0,3.6315455E0,2.5867348E0,6.5337646E-1,0E0,0E0,0E0,0E0,4.6895754E-1,0E0,1.091777E1,6.956848E0,1.3335723E1,4.218933E0,4.348941E0,0E0,0E0,0E0,0E0,0E0,0E0,0E0,0E0,0E0,0E0,0E0,0E0,0E0,0E0,0E0,0E0,0E0,0E0,0E0,0E0,0E0,0E0,0E0],"parents":[2147483647,0,0,1,1,2,2,3,3,4,4,5,5,6,6,8,8,9,9,10,10,11,11,12,12,14,14,15,15,16,16,20,20,21,21,22,22,23,23,24,24,25,25,26,26,28,28,29,29,30,30,31,31,32,32,37,37,39,39,40,40,41,41,42,42,43,43],"right_children":[2,4,6,8,10,12,14,-1,16,18,20,22,24,-1,26,28,30,-1,-1,-1,32,34,36,38,40,42,44,-1,46,48,50,52,54,-1,-1,-1,-1,56,-1,58,60,62,64,66,-1,-1,-1,-1,-1,-1,-1,-1,-1,-1,-1,-1,-1,-1,-1,-1,-1,-1,-1,-1,-1,-1,-1],"split_conditions":[-1.5358545E1,4.1388696E7,1.3009338E7,5.6877565E0,2.1975E1,2.5562039E2,5.6175E2,-1.6784789E-1,-2.2749702E1,-5.731685E-1,8.24225E4,3.2160423E1,3.0665002E2,-1.725042E-1,2.0710902E0,6.0802164E0,2.0690219E4,2.6242685E-2,-1.7531922E-1,-1.6967125E-1,3.2340033E2,1.2976228E7,-1.5812253E2,5.162861E0,1.4703175E3,6.797554E1,1.2984346E3,5.256083E-2,-4.1940544E1,-3.1570242E4,1.7123001E2,8.73356E7,-3.7328452E-1,-1.7693284E-1,-2.4332546E-2,-1.2731904E-1,1.5318386E-1,1.0783892E0,2.1137564E-1,9.5820166E2,1.6528875E3,2.2136594E2,-6.869747E6,3.2799608E7,2.0264123E-1,2.134622E-1,1.8455176E-1,5.5024046E-3,2.1403271E-1,-1.6830498E-1,1.7264563E-1,1.982091E-1,-1.5463742E-3,6.956552E-2,-1.4146057E-1,-1.2299242E-1,7.212035E-2,-1.2615053E-1,2.0578215E-1,2.9258502E-1,-9.374082E-2,1.9604307E-1,-1.5139385E-1,2.0925502E-1,-1.406689E-1,-1.3949467E-1,1.16379745E-1],"split_indices":[91,7,7,15,56,88,92,0,91,27,92,60,3,0,83,15,6,0,0,0,11,7,61,26,63,88,17,0,91,11,0,7,8,0,0,0,0,44,0,50,62,15,6,7,0,0,0,0,0,0,0,0,0,0,0,0,0,0,0,0,0,0,0,0,0,0,0],"split_type":[0,0,0,0,0,0,0,0,0,0,0,0,0,0,0,0,0,0,0,0,0,0,0,0,0,0,0,0,0,0,0,0,0,0,0,0,0,0,0,0,0,0,0,0,0,0,0,0,0,0,0,0,0,0,0,0,0,0,0,0,0,0,0,0,0,0,0],"sum_hessian":[1.6606176E3,8.1377954E2,8.468381E2,6.000268E2,2.1375275E2,6.029887E2,2.4384933E2,1.6024366E1,5.8400244E2,1.24087456E2,8.96653E1,3.8264166E2,2.2034706E2,2.9405966E1,2.1444337E2,5.366638E2,4.7338615E1,1.012536E0,1.2307492E2,1.944812E1,7.021718E1,3.7865543E2,3.9862232E0,5.1919895E1,1.6842717E2,1.7211713E2,4.2326244E1,1.4928896E0,5.351709E2,3.3026688E1,1.4311925E1,6.53179E1,4.8992715E0,3.7714783E2,1.5076103E0,2.1397114E0,1.8465118E0,2.5734637E0,4.934643E1,1.5172374E2,1.6703436E1,4.094731E1,1.3116982E2,3.2719795E1,9.606449E0,4.4949957E2,8.567137E1,2.6994004E0,3.0327288E1,1.1565777E1,2.7461488E0,5.887062E1,6.447282E0,1.1320031E0,3.7672687E0,1.4078246E0,1.1656392E0,1.4310185E2,8.621875E0,1.0803183E1,5.900254E0,2.6165756E1,1.4781555E1,1.286465E2,2.5233252E0,2.5855839E1,6.8639574E0],"tree_param":{"num_deleted":"0","num_feature":"93","num_nodes":"67","size_leaf_vector":"0"}},{"base_weights":[-3.2004166E-1,-5.170216E-1,1.2889653E-1,-5.414161E-1,-2.7662563E-1,-4.7987157E-1,2.2929618E-1,-5.424994E-1,1.1378897E-1,-4.7840133E-1,8.2241595E-2,6.206575E-1,-5.5877024E-1,4.767136E-2,5.0545883E-1,-4.9990246E-1,-5.598692E-1,-9.074236E-2,-5.5506897E-1,-2.0975614E-1,4.9090755E-1,-5.0271064E-1,1.8039988E-1,-4.1546875E-1,5.674215E-1,-5.608577E-1,5.039478E-1,-5.643027E-1,-3.4623325E-1,-3.9459777E-1,5.6300014E-1,4.0570357E-1,-5.816024E-1,6.097423E-1,-3.1828704E-1,4.5501527E-1,-5.717555E-1,2.8596342E-1,-4.1536227E-1,-5.029307E-1,1.02354586E-1,6.456958E-1,-1.7907048E-2,7.1890086E-1,-5.177657E-1,-5.1827246E-1,4.4661877E-1,-4.7179517E-1,1.860988E-2,7.120462E-1,-3.6546597E-1,-8.047824E-2,-5.8846587E-1,3.369117E-1,-1.1399915E0,5.264956E-1,-5.442595E-1,6.971052E-1,-1.1405448E-1,4.555121E-1,-6.751991E-1],"categories":[],"categories_nodes":[],"categories_segments":[],"categories_sizes":[],"default_left":[1,1,0,1,1,1,1,1,0,1,1,0,0,0,1,1,1,1,0,1,1,1,1,1,1,0,1,0,1,1,0,1,0,0,0,0,1,1,1,0,0,1,0,0,0,0,0,0,0,0,0,0,0,0,0,0,0,0,0,0,0],"id":12,"left_children":[1,3,5,7,9,11,13,15,-1,17,19,-1,-1,21,23,25,27,29,-1,31,33,35,37,39,41,-1,43,-1,45,47,-1,49,-1,-1,-1,-1,51,53,55,-1,-1,57,59,-1,-1,-1,-1,-1,-1,-1,-1,-1,-1,-1,-1,-1,-1,-1,-1,-1,-1],"loss_changes":[1.0181673E2,4.5411987E0,2.1605375E1,5.7647705E-1,5.52364E0,4.6981735E0,1.5152546E1,2.559204E-1,0E0,1.3948717E0,3.45753E0,0E0,0E0,1.350549E1,7.079994E0,1.3688896E1,2.839203E-1,2.0545464E0,0E0,4.1487055E0,1.3494191E0,2.637022E0,9.470049E0,4.2007208E-1,5.1797676E0,0E0,3.24239E0,0E0,1.9877914E0,2.2841501E-1,0E0,1.9205989E0,0E0,0E0,0E0,0E0,2.3151875E-1,9.603506E0,3.05316E0,0E0,0E0,3.9667664E0,4.75068E0,0E0,0E0,0E0,0E0,0E0,0E0,0E0,0E0,0E0,0E0,0E0,0E0,0E0,0E0,0E0,0E0,0E0,0E0],"parents":[2147483647,0,0,1,1,2,2,3,3,4,4,5,5,6,6,7,7,9,9,10,10,13,13,14,14,15,15,16,16,17,17,19,19,20,20,21,21,22,22,23,23,24,24,26,26,28,28,29,29,31,31,36,36,37,37,38,38,41,41,42,42],"right_children":[2,4,6,8,10,12,14,16,-1,18,20,-1,-1,22,24,26,28,30,-1,32,34,36,38,40,42,-1,44,-1,46,48,-1,50,-1,-1,-1,-1,52,54,56,-1,-1,58,60,-1,-1,-1,-1,-1,-1,-1,-1,-1,-1,-1,-1,-1,-1,-1,-1,-1,-1],"split_conditions":[4.4881603E1,2.9591652E1,5.548E3,5.105954E1,7.5079594E0,2.315013E6,5.778634E2,-1.4158732E7,3.4136694E-2,5.786126E-1,1.5755E2,1.8619725E-1,-1.6763107E-1,6.44E4,-6.962855E6,-1.5638152E7,1.4903107E1,3.8169787E0,-1.665207E-1,-1.453796E7,7.931139E2,4.9415368E-1,3.4497652E7,3.8785416E1,1.4703175E3,-1.6825733E-1,6.5440384E1,-1.6929081E-1,1.1124358E1,3.73E3,1.6890004E-1,8.57425E5,-1.7448072E-1,1.8292269E-1,-9.548612E-2,1.3650459E-1,5.704707E-1,5.693E2,8.7875E1,-1.5087922E-1,3.0706378E-2,2.9492905E1,2.3852676E4,2.1567027E-1,-1.5532972E-1,-1.5548174E-1,1.3398564E-1,-1.4153856E-1,5.582964E-3,2.1361387E-1,-1.0963979E-1,-2.4143474E-2,-1.7653976E-1,1.0107352E-1,-3.4199747E-1,1.5794867E-1,-1.6327785E-1,2.0913158E-1,-3.4216344E-2,1.3665363E-1,-2.0255974E-1],"split_indices":[91,91,92,87,26,7,41,6,0,44,30,0,0,92,6,6,26,87,0,6,15,45,7,59,63,0,13,0,91,4,0,4,0,0,0,0,45,54,63,0,0,85,92,0,0,0,0,0,0,0,0,0,0,0,0,0,0,0,0,0,0],"split_type":[0,0,0,0,0,0,0,0,0,0,0,0,0,0,0,0,0,0,0,0,0,0,0,0,0,0,0,0,0,0,0,0,0,0,0,0,0,0,0,0,0,0,0,0,0,0,0,0,0,0,0,0,0,0,0,0,0,0,0,0,0],"sum_hessian":[1.1496047E3,7.9891455E2,3.5069025E2,7.241758E2,7.473876E1,4.911349E1,3.0157678E2,7.231521E2,1.0236709E0,4.7627033E1,2.7111729E1,2.8261416E0,4.628735E1,1.8263513E2,1.1894164E2,2.1809236E2,5.0505972E2,8.224519E0,3.9402515E1,1.6096952E1,1.1014776E1,3.494443E1,1.476907E2,7.138576E0,1.1180306E2,2.060236E2,1.2068765E1,4.9318362E2,1.1876101E1,5.885416E0,2.3391025E0,6.0282574E0,1.0068696E1,9.819247E0,1.1955287E0,1.9739211E0,3.297051E1,1.2590203E2,2.1788668E1,6.1316767E0,1.0068991E0,9.852453E1,1.3278539E1,1.0215876E1,1.8528883E0,1.0043173E1,1.8329275E0,4.839492E0,1.0459238E0,4.3692613E0,1.6589965E0,1.2758887E0,3.1694622E1,1.2229621E2,3.6058226E0,2.251589E0,1.9537079E1,9.23575E1,6.1670237E0,7.8973813E0,5.381157E0],"tree_param":{"num_deleted":"0","num_feature":"93","num_nodes":"61","size_leaf_vector":"0"}},{"base_weights":[1.5950584E-1,2.0864163E-1,-5.551753E-1,6.865948E-2,6.035409E-1,5.1726055E-1,-9.7267464E-2,6.195287E-1,-4.8628977E-1,-2.044408E-1,5.861181E-1,-3.9155662E-1,1.11367226E-1,6.2779254E-1,1.3936675E-1,5.7802945E-1,-5.296968E-1,-4.4132262E-1,6.0199225E-1,-2.4326416E-2,-5.6187475E-1,4.372905E-1,-1.680548E-1,-8.599866E-2,6.3044316E-1,-3.173704E-1,4.9674216E-1,6.446154E-1,4.5997277E-1,3.396641E-1,-4.0658575E-1,-5.750614E-1,4.688239E-2,6.3405764E-1,-5.5463713E-1,5.661482E-1,-3.5286283E-1,6.4202493E-1,4.6392027E-1,-8.219101E-2,-3.7420377E-1],"categories":[],"categories_nodes":[],"categories_segments":[],"categories_sizes":[],"default_left":[1,1,0,1,1,1,1,0,0,1,1,1,1,1,1,0,0,0,1,0,1,1,0,0,1,1,0,0,0,0,0,0,0,0,0,0,0,0,0,0,0],"id":13,"left_children":[1,3,-1,5,7,9,11,13,-1,15,17,19,21,23,25,-1,-1,-1,27,29,31,33,35,-1,37,39,-1,-1,-1,-1,-1,-1,-1,-1,-1,-1,-1,-1,-1,-1,-1],"loss_changes":[5.1014194E1,7.4966675E1,0E0,7.470277E1,6.486496E0,1.3584801E1,4.504701E1,1.3024445E0,0E0,6.501164E0,4.304161E0,1.9018326E1,3.9204426E1,7.0521545E-1,1.3348389E0,0E0,0E0,0E0,1.1821289E0,1.3698103E1,1.6953201E0,3.911686E1,3.1687946E1,0E0,3.6354065E-1,1.9714594E-2,0E0,0E0,0E0,0E0,0E0,0E0,0E0,0E0,0E0,0E0,0E0,0E0,0E0,0E0,0E0],"parents":[2147483647,0,0,1,1,3,3,4,4,5,5,6,6,7,7,9,9,10,10,11,11,12,12,13,13,14,14,18,18,19,19,20,20,21,21,22,22,24,24,25,25],"right_children":[2,4,-1,6,8,10,12,14,-1,16,18,20,22,24,26,-1,-1,-1,28,30,32,34,36,-1,38,40,-1,-1,-1,-1,-1,-1,-1,-1,-1,-1,-1,-1,-1,-1,-1],"split_conditions":[1.480493E6,-9.216913E5,-1.665526E-1,1.1325562E0,3.9748926E2,-3.622805E7,3.1762076E2,2.1836725E5,-1.4588694E-1,-5.8947276E7,-5.2643837E1,2.6540321E1,1.0300493E1,-3.688323E5,7.65234E-1,1.7340884E-1,-1.5890905E-1,-1.3239679E-1,2.054445E1,7.51275E4,2.998581E1,1.3036668E7,5.95E2,-2.57996E-2,1.452598E0,-3.1584114E-1,1.4902265E-1,1.9338463E-1,1.3799183E-1,1.0189924E-1,-1.2197573E-1,-1.7251842E-1,1.4064718E-2,1.902173E-1,-1.6639115E-1,1.6984448E-1,-1.05858855E-1,1.9260749E-1,1.3917609E-1,-2.4657305E-2,-1.1226114E-1],"split_indices":[6,6,0,35,51,6,15,92,0,6,75,15,35,9,38,0,0,0,15,92,48,7,92,0,39,8,0,0,0,0,0,0,0,0,0,0,0,0,0,0,0],"split_type":[0,0,0,0,0,0,0,0,0,0,0,0,0,0,0,0,0,0,0,0,0,0,0,0,0,0,0,0,0,0,0,0,0,0,0,0,0,0,0,0,0],"sum_hessian":[1.4484175E3,1.3559044E3,9.251314E1,1.0019215E3,3.5398288E2,2.6995422E2,7.319673E2,3.4929034E2,4.692555E0,2.334148E1,2.4661275E2,3.0328815E2,4.2867914E2,3.4307834E2,6.2119837E0,6.625448E0,1.6716032E1,3.344443E0,2.4326831E2,9.6456665E1,2.0683148E2,1.9761371E2,2.3106543E2,1.1529573E0,3.4192538E2,2.7760475E0,3.435936E0,1.843899E2,5.8878418E1,4.946608E1,4.699058E1,2.0250035E2,4.331124E0,1.6520335E2,3.2410355E1,4.605103E1,1.8501439E2,3.1702084E2,2.490454E1,1.016382E0,1.7596655E0],"tree_param":{"num_deleted":"0","num_feature":"93","num_nodes":"41","size_leaf_vector":"0"}},{"base_weights":[9.918341E-2,3.735421E-1,-1.6540165E-1,5.749564E-1,-2.035975E-1,-3.5712504E-1,2.8011543E-1,-5.279171E-1,6.0479873E-1,-4.6244386E-1,4.0966263E-1,-5.6182694E-1,-3.3241138E-2,-5.2256405E-1,3.8995305E-1,6.3704675E-1,4.0171948E-1,2.0872714E-1,-5.646712E-1,-5.1818585E-1,6.1464494E-1,2.1201512E-1,-5.651522E-1,5.977981E-1,-2.2554101E-1,-5.530106E-1,1.134603E-1,5.076112E-1,-6.5419585E-2,1.3782336E-1,6.384591E-1,-1.9218875E-1,6.012381E-1,-5.009041E-1,6.161893E-1,2.0778762E-1,6.356517E-1,-5.6804746E-1,-2.9988867E-1,6.397309E-1,-1.3902773E-1,-3.8959154E-1,1.9372264E-1,2.1457775E-1,5.9743273E-1,-2.8229627E-1,5.483747E-1,5.58332E-1,-5.7341105E-1,6.2015307E-1,-1.3952501E-1,4.040329E-1,-1.2274375E-1,1.2471914E-1,-4.3458632E-1,-3.7585348E-1,1.8947272E-1,-4.68807E-1,5.873304E-1,1.3686248E0,1.4641174E-2,5.5548286E-1,-5.2816063E-1,6.298813E-1,-4.513795E-1,-4.6803787E-1,3.1682113E-1,4.285223E-2,6.078844E-1],"categories":[],"categories_nodes":[],"categories_segments":[],"categories_sizes":[],"default_left":[1,1,1,1,1,1,0,0,1,1,1,1,1,1,1,1,1,1,0,0,1,0,1,1,1,0,0,1,1,0,0,1,1,0,0,1,0,0,1,0,1,1,1,1,1,1,1,0,0,0,0,0,0,0,0,0,0,0,0,0,0,0,0,0,0,0,0,0,0],"id":14,"left_children":[1,3,5,7,9,11,13,-1,15,17,19,21,23,25,27,29,31,33,-1,-1,35,-1,37,39,41,-1,-1,43,45,-1,-1,47,49,-1,-1,51,-1,-1,53,-1,55,57,59,61,63,65,67,-1,-1,-1,-1,-1,-1,-1,-1,-1,-1,-1,-1,-1,-1,-1,-1,-1,-1,-1,-1,-1,-1],"loss_changes":[1.0036781E2,7.900895E1,6.024308E1,1.6886047E1,2.8177486E1,3.264807E1,1.893035E1,0E0,2.9567566E0,8.656794E0,1.0372298E1,8.965378E-1,2.341836E1,5.661125E-1,1.0074377E1,2.0927429E-1,8.402151E0,5.2762594E0,0E0,0E0,2.4187279E-1,0E0,6.0676575E-2,1.482029E0,1.0240181E1,0E0,0E0,3.794773E0,5.395144E0,0E0,0E0,5.5683904E0,8.2337E-1,0E0,0E0,2.8529978E-1,0E0,0E0,3.6111218E-1,0E0,3.2399812E-1,8.521286E0,8.865443E0,9.542358E0,4.147583E0,3.4587176E0,2.9337168E-1,0E0,0E0,0E0,0E0,0E0,0E0,0E0,0E0,0E0,0E0,0E0,0E0,0E0,0E0,0E0,0E0,0E0,0E0,0E0,0E0,0E0,0E0],"parents":[2147483647,0,0,1,1,2,2,3,3,4,4,5,5,6,6,8,8,9,9,10,10,11,11,12,12,13,13,14,14,15,15,16,16,17,17,20,20,22,22,23,23,24,24,27,27,28,28,31,31,32,32,35,35,38,38,40,40,41,41,42,42,43,43,44,44,45,45,46,46],"right_children":[2,4,6,8,10,12,14,-1,16,18,20,22,24,26,28,30,32,34,-1,-1,36,-1,38,40,42,-1,-1,44,46,-1,-1,48,50,-1,-1,52,-1,-1,54,-1,56,58,60,62,64,66,68,-1,-1,-1,-1,-1,-1,-1,-1,-1,-1,-1,-1,-1,-1,-1,-1,-1,-1,-1,-1,-1,-1],"split_conditions":[-1.5358545E1,4.132027E7,1.2935608E7,5.6877565E0,3.1973275E5,2.5562039E2,5.95E2,-1.5837513E-1,-2.743074E1,-4.326693E7,2.0666666E1,-1.7516472E7,3.0665002E2,1.1365E3,2.0710902E0,6.0802164E0,4.6453114E1,2.375E1,-1.6940138E-1,-1.5545577E-1,2.2807556E1,6.360454E-2,1.2814421E7,8.829932E1,1.0589191E1,-1.6590318E-1,3.4038093E-2,6.797554E1,1.3543501E3,4.134701E-2,1.9153774E-1,6.279E1,4.415E2,-1.5027124E-1,1.848568E-1,-5.1087264E7,1.9069552E-1,-1.7041424E-1,6.7883093E2,1.9191927E-1,-1.98E-2,7.984257E2,3.9322186E2,2.2754686E2,-6.869747E6,3.2799608E7,5.636333E-1,1.6749962E-1,-1.7202333E-1,1.8604593E-1,-4.1857503E-2,1.2120987E-1,-3.6823127E-2,3.7415743E-2,-1.303759E-1,-1.1275605E-1,5.6841817E-2,-1.406421E-1,1.7619912E-1,4.1058746E-1,4.3923524E-3,1.6664487E-1,-1.5844819E-1,1.8896441E-1,-1.3541386E-1,-1.4041136E-1,9.504634E-2,1.28556695E-2,1.8236533E-1],"split_indices":[91,7,7,15,92,88,92,0,91,6,25,6,3,1,83,15,15,63,0,0,48,0,7,91,36,0,0,88,31,0,0,0,3,0,0,6,0,0,15,0,5,51,18,15,6,7,45,0,0,0,0,0,0,0,0,0,0,0,0,0,0,0,0,0,0,0,0,0,0],"split_type":[0,0,0,0,0,0,0,0,0,0,0,0,0,0,0,0,0,0,0,0,0,0,0,0,0,0,0,0,0,0,0,0,0,0,0,0,0,0,0,0,0,0,0,0,0,0,0,0,0,0,0,0,0,0,0,0,0,0,0,0,0,0,0,0,0,0,0,0,0],"sum_hessian":[1.380793E3,6.776741E2,7.0311884E2,5.0236053E2,1.7531355E2,4.9171365E2,2.1140518E2,1.2795386E1,4.8956512E2,1.2345239E2,5.1861168E1,3.0084082E2,1.9087285E2,2.4994064E1,1.8641112E2,4.206335E2,6.893162E1,1.6180162E1,1.07272224E2,9.107643E0,4.2753525E1,1.018687E0,2.9982214E2,4.4087936E1,1.4678491E2,2.3976812E1,1.0172515E0,1.4804489E2,3.8366226E1,1.4647522E0,4.1916876E2,1.7343086E1,5.1588535E1,5.8181014E0,1.03620615E1,2.6338005E0,4.0119724E1,2.9545596E2,4.366168E0,4.1838673E1,2.2492638E0,1.0555417E2,4.1230732E1,3.552786E1,1.1251703E2,2.874841E1,9.617817E0,5.6854434E0,1.1657643E1,5.0462814E1,1.1257207E0,1.5130744E0,1.1207261E0,1.0693462E0,3.2968218E0,1.2232428E0,1.0260211E0,9.81182E1,7.4359703E0,4.5747356E0,3.6656E1,2.4523895E1,1.10039625E1,1.0952784E2,2.9891856E0,2.2111935E1,6.636474E0,1.1941185E0,8.423698E0],"tree_param":{"num_deleted":"0","num_feature":"93","num_nodes":"69","size_leaf_vector":"0"}},{"base_weights":[-2.965366E-1,-4.9807993E-1,1.16986856E-1,-5.2397656E-1,-2.5623316E-1,-4.476518E-1,2.0226769E-1,1.0713999E-1,-5.2538157E-1,-4.4909424E-1,6.403101E-2,5.9213734E-1,-5.3904593E-1,3.236684E-2,4.4180065E-1,-4.8184305E-1,-5.4304564E-1,-5.0010312E-2,-5.363515E-1,-2.0786363E-1,4.3928427E-1,-4.7823703E-1,1.4360552E-1,-3.957561E-1,5.0113225E-1,4.968631E-1,-5.3866833E-1,-5.4817384E-1,-3.0754697E-1,-3.586475E-1,5.299687E-1,3.5115597E-1,-5.619574E-1,5.548997E-1,-2.9869437E-1,-5.674285E-1,2.6611307E-1,2.4647515E-1,-4.292129E-1,-4.8183295E-1,9.9242836E-2,5.744803E-1,-4.5279413E-2,6.1620516E-1,-1.747926E-1,-5.4482603E-1,1.4568208E-1,3.8856506E-1,-4.9256456E-1,-4.4126165E-1,2.1159898E-2,6.0646236E-1,-3.2999855E-1,-5.550702E-2,4.0551242E-1,5.8318347E-1,9.262204E-2,5.332405E-1,-5.2207184E-1,6.061141E-1,-5.8044904E-1,-6.298764E-1,4.4466233E-1],"categories":[],"categories_nodes":[],"categories_segments":[],"categories_sizes":[],"default_left":[1,1,0,1,1,1,1,0,1,1,1,0,0,0,1,1,1,1,0,1,1,1,1,1,1,1,1,0,1,1,0,1,0,0,0,0,1,1,1,0,0,1,1,0,0,0,0,0,0,0,0,0,0,0,0,0,0,0,0,0,0,0,0],"id":15,"left_children":[1,3,5,7,9,11,13,-1,15,17,19,-1,-1,21,23,25,27,29,-1,31,33,35,37,39,41,43,45,-1,47,49,-1,51,-1,-1,-1,-1,53,55,57,-1,-1,59,61,-1,-1,-1,-1,-1,-1,-1,-1,-1,-1,-1,-1,-1,-1,-1,-1,-1,-1,-1,-1],"loss_changes":[7.8041626E1,3.8069153E0,1.4893454E1,5.594635E-1,3.9090433E0,4.1821327E0,1.0882916E1,0E0,1.7390442E-1,1.3429289E0,2.5897222E0,0E0,0E0,9.027634E0,5.7160206E0,9.852131E0,3.084793E-1,1.6507542E0,0E0,3.142339E0,1.0709503E0,2.0395718E0,7.7828794E0,3.8459027E-1,4.1993732E0,9.074471E-1,7.6776505E-1,0E0,1.5690761E0,1.9516385E-1,0E0,1.3104815E0,0E0,0E0,0E0,0E0,1.8949771E-1,5.7005672E0,2.0836966E0,0E0,0E0,3.708622E0,4.075323E0,0E0,0E0,0E0,0E0,0E0,0E0,0E0,0E0,0E0,0E0,0E0,0E0,0E0,0E0,0E0,0E0,0E0,0E0,0E0,0E0],"parents":[2147483647,0,0,1,1,2,2,3,3,4,4,5,5,6,6,8,8,9,9,10,10,13,13,14,14,15,15,16,16,17,17,19,19,20,20,21,21,22,22,23,23,24,24,25,25,26,26,28,28,29,29,31,31,36,36,37,37,38,38,41,41,42,42],"right_children":[2,4,6,8,10,12,14,-1,16,18,20,-1,-1,22,24,26,28,30,-1,32,34,36,38,40,42,44,46,-1,48,50,-1,52,-1,-1,-1,-1,54,56,58,-1,-1,60,62,-1,-1,-1,-1,-1,-1,-1,-1,-1,-1,-1,-1,-1,-1,-1,-1,-1,-1,-1,-1],"split_conditions":[4.4881603E1,2.9591652E1,5.548E3,6.9809446E0,7.5079594E0,2.315013E6,5.6795605E2,3.2142E-2,-1.4158732E7,5.786126E-1,1.5755E2,1.7764121E-1,-1.6171378E-1,6.44E4,-6.962855E6,1.2092026E7,1.4903107E1,3.8169787E0,-1.6090545E-1,-1.453796E7,7.931139E2,2.051674E5,-1.3876112E-2,3.8785416E1,1.4703175E3,6.257744E1,7.6882353E0,-1.6445217E-1,2.4E1,1.3671877E1,1.589906E-1,8.57425E5,-1.6858724E-1,1.6646992E-1,-8.960831E-2,-1.7022857E-1,2.3005E2,6.6606346E1,-1.5458392E-1,-1.4454989E-1,2.9772852E-2,7.9927563E2,1.6528875E3,1.8486156E-1,-5.2437782E-2,-1.6344781E-1,4.3704625E-2,1.1656953E-1,-1.4776938E-1,-1.323785E-1,6.3479696E-3,1.8193871E-1,-9.899957E-2,-1.6652107E-2,1.2165373E-1,1.7495504E-1,2.7786614E-2,1.5997216E-1,-1.5662156E-1,1.8183424E-1,-1.7413472E-1,-1.8896292E-1,1.3339871E-1],"split_indices":[91,91,92,71,26,7,68,0,6,44,30,0,0,92,6,7,26,87,0,6,15,9,8,59,63,13,80,0,65,19,0,4,0,0,0,0,1,88,20,0,0,88,62,0,0,0,0,0,0,0,0,0,0,0,0,0,0,0,0,0,0,0,0],"split_type":[0,0,0,0,0,0,0,0,0,0,0,0,0,0,0,0,0,0,0,0,0,0,0,0,0,0,0,0,0,0,0,0,0,0,0,0,0,0,0,0,0,0,0,0,0,0,0,0,0,0,0,0,0,0,0,0,0,0,0,0,0,0,0],"sum_hessian":[9.346929E2,6.282779E2,3.0641498E2,5.66456E2,6.1821888E1,3.9649452E1,2.6676553E2,1.0910732E0,5.653649E2,3.833471E1,2.3487179E1,2.7608125E0,3.688864E1,1.5673117E2,1.10034355E2,1.7133551E2,3.9402942E2,7.1600957E0,3.1174612E1,1.3877863E1,9.609316E0,2.744677E1,1.292844E2,6.90397E0,1.0313039E2,8.977181E0,1.6235834E2,3.8433252E2,9.696877E0,4.9223013E0,2.2377944E0,5.3848767E0,8.492987E0,8.522258E0,1.0870577E0,2.4722136E1,2.7246346E0,1.10084564E2,1.9199827E1,5.903918E0,1.000052E0,9.08797E1,1.2250686E1,7.6928477E0,1.2843335E0,1.6111255E2,1.2457873E0,1.8051206E0,7.8917556E0,3.9100084E0,1.0122927E0,3.9965632E0,1.3883135E0,1.0058246E0,1.7188101E0,3.3650265E1,7.64343E1,1.2721294E0,1.7927698E1,8.891937E1,1.9603281E0,5.455539E0,6.7951465E0],"tree_param":{"num_deleted":"0","num_feature":"93","num_nodes":"63","size_leaf_vector":"0"}},{"base_weights":[1.4615032E-1,1.9000189E-1,-5.368904E-1,6.2398203E-2,5.5892706E-1,4.7491503E-1,-8.5947104E-2,5.7380676E-1,-4.4853592E-1,-1.8851145E-1,5.362824E-1,-3.61801E-1,9.9992275E-2,5.817515E-1,1.2137452E-1,5.2373475E-1,-5.0596493E-1,-4.0414205E-1,5.508915E-1,-1.8327484E-2,-5.353821E-1,3.9642102E-1,-1.4703456E-1,6.0132915E-1,4.3396333E-1,-2.847645E-1,4.4527125E-1,5.8420086E-1,3.292101E-1,6.6245043E-1,-1.8434817E-1,-5.5034024E-1,4.797416E-2,5.704112E-1,-5.3441066E-1,5.79121E-1,-3.013414E-1,-4.9876454E-1,6.019732E-1],"categories":[],"categories_nodes":[],"categories_segments":[],"categories_sizes":[],"default_left":[1,1,0,1,1,1,1,0,0,1,1,1,1,1,1,0,0,0,1,1,1,1,1,0,1,0,0,0,0,0,0,0,0,0,0,0,0,0,0],"id":16,"left_children":[1,3,-1,5,7,9,11,13,-1,15,17,19,21,23,25,-1,-1,-1,27,29,31,33,35,-1,37,-1,-1,-1,-1,-1,-1,-1,-1,-1,-1,-1,-1,-1,-1],"loss_changes":[3.5892E1,5.2857536E1,0E0,5.1195614E1,4.583954E0,9.108917E0,3.161563E1,9.5329285E-1,0E0,4.6679664E0,3.0085907E0,1.478307E1,2.7046507E1,5.482483E-1,9.3967956E-1,0E0,0E0,0E0,1.2852287E0,9.653509E0,1.4643173E0,2.748091E1,2.2782085E1,0E0,5.9899774E0,0E0,0E0,0E0,0E0,0E0,0E0,0E0,0E0,0E0,0E0,0E0,0E0,0E0,0E0],"parents":[2147483647,0,0,1,1,3,3,4,4,5,5,6,6,7,7,9,9,10,10,11,11,12,12,13,13,14,14,18,18,19,19,20,20,21,21,22,22,24,24],"right_children":[2,4,-1,6,8,10,12,14,-1,16,18,20,22,24,26,-1,-1,-1,28,30,32,34,36,-1,38,-1,-1,-1,-1,-1,-1,-1,-1,-1,-1,-1,-1,-1,-1],"split_conditions":[1.480493E6,-9.216913E5,-1.6106713E-1,1.1325562E0,3.9748926E2,-3.622805E7,3.1762076E2,2.1836725E5,-1.3456078E-1,-5.8947276E7,-5.2643837E1,2.6540321E1,1.0300493E1,2.109E2,7.65234E-1,1.5712044E-1,-1.5178949E-1,-1.2124262E-1,9.766571E-1,3.896002E1,2.998581E1,1.3036668E7,3.55E2,1.8039875E-1,3.701E2,-8.5429356E-2,1.3358139E-1,1.7526026E-1,9.8763034E-2,1.9873513E-1,-5.5304453E-2,-1.6510208E-1,1.4392249E-2,1.7112337E-1,-1.603232E-1,1.737363E-1,-9.0402424E-2,-1.4962937E-1,1.8059196E-1],"split_indices":[6,6,0,35,51,6,15,92,0,6,75,15,35,0,38,0,0,0,35,88,48,7,4,0,0,0,0,0,0,0,0,0,0,0,0,0,0,0,0],"split_type":[0,0,0,0,0,0,0,0,0,0,0,0,0,0,0,0,0,0,0,0,0,0,0,0,0,0,0,0,0,0,0,0,0,0,0,0,0,0,0],"sum_hessian":[1.193895E3,1.1225486E3,7.134638E1,8.349319E2,2.8761676E2,2.2025316E2,6.146787E2,2.8385483E2,3.7619445E0,1.8473139E1,2.0178001E2,2.4711732E2,3.675614E2,2.786754E2,5.1794E0,5.494885E0,1.2978253E1,2.6787496E0,1.9910127E2,8.333124E1,1.6378607E2,1.6679953E2,2.0076186E2,2.4336742E2,3.5308E1,2.35156E0,2.8278399E0,1.7167108E2,2.7430187E1,1.5751419E1,6.757982E1,1.5974654E2,4.039547E0,1.4085773E2,2.59418E1,3.470235E1,1.6605951E2,5.0887117E0,3.0219288E1],"tree_param":{"num_deleted":"0","num_feature":"93","num_nodes":"39","size_leaf_vector":"0"}},{"base_weights":[9.096625E-2,3.5100192E-1,-1.5170017E-1,5.3926253E-1,-1.9469102E-1,-3.3123946E-1,2.5296092E-1,-5.06698E-1,5.6861705E-1,-4.5908824E-1,3.450795E-1,-5.439196E-1,-2.540267E-2,-4.6718383E-1,3.557667E-1,5.9297824E-1,3.9890546E-1,1.3913439E-1,-5.471277E-1,-5.0401425E-1,5.7006705E-1,1.3346389E-1,-5.474826E-1,5.6845236E-1,-1.9656852E-1,4.1208348E-1,-5.738507E-1,4.6779004E-1,-6.94565E-2,1.0271625E-1,5.947182E-1,-1.8657544E-1,5.866713E-1,-4.7163543E-1,5.580583E-1,1.6512296E-1,5.910655E-1,-5.5090046E-1,-2.594304E-1,5.993867E-1,-2.8266394E-1,-5.114735E-1,3.1939335E-2,2.1425626E-1,5.561212E-1,-4.1970417E-1,2.4756251E-1,6.047519E-1,4.9875644E-1,4.9396893E-1,-5.352316E-1,5.9684634E-1,1.014481E-1,3.3348534E-1,-9.6846275E-2,-4.013968E-1,1.2975436E-1,5.714965E-1,-5.5825466E-1,9.489488E-1,-1.4872207E-1,5.042325E-1,-5.062783E-1,5.8654463E-1,-4.0765694E-1,-5.354342E-1,4.7523582E-1,5.766944E-1,-4.9483857E-1],"categories":[],"categories_nodes":[],"categories_segments":[],"categories_sizes":[],"default_left":[1,1,1,1,1,1,1,0,1,1,1,1,1,1,1,1,1,1,0,0,1,0,1,1,1,0,0,1,1,0,1,1,1,0,0,1,0,0,1,0,0,1,0,1,1,1,1,0,0,0,0,0,0,0,0,0,0,0,0,0,0,0,0,0,0,0,0,0,0],"id":17,"left_children":[1,3,5,7,9,11,13,-1,15,17,19,21,23,25,27,29,31,33,-1,-1,35,-1,37,39,41,-1,-1,43,45,-1,47,49,51,-1,-1,53,-1,-1,55,-1,-1,57,59,61,63,65,67,-1,-1,-1,-1,-1,-1,-1,-1,-1,-1,-1,-1,-1,-1,-1,-1,-1,-1,-1,-1,-1,-1],"loss_changes":[7.138687E1,5.6196686E1,4.2618477E1,1.2760361E1,2.0250282E1,2.639214E1,1.3528894E1,0E0,1.3989868E0,5.0756035E0,9.238951E0,6.5086365E-1,1.7144073E1,2.3917298E0,7.58317E0,2.3226166E-1,5.9043627E0,3.5830994E0,0E0,0E0,2.2137642E-1,0E0,9.173584E-2,1.1632652E0,9.429559E0,0E0,0E0,2.6933994E0,3.8704984E0,0E0,2.8114319E-2,3.4815822E0,1.3769817E-1,0E0,0E0,1.7506617E-1,0E0,0E0,3.1093284E-1,0E0,0E0,3.1088867E0,1.2855813E1,7.375135E0,2.9517117E0,1.962106E0,4.7899E0,0E0,0E0,0E0,0E0,0E0,0E0,0E0,0E0,0E0,0E0,0E0,0E0,0E0,0E0,0E0,0E0,0E0,0E0,0E0,0E0,0E0,0E0],"parents":[2147483647,0,0,1,1,2,2,3,3,4,4,5,5,6,6,8,8,9,9,10,10,11,11,12,12,13,13,14,14,15,15,16,16,17,17,20,20,22,22,23,23,24,24,27,27,28,28,30,30,31,31,32,32,35,35,38,38,41,41,42,42,43,43,44,44,45,45,46,46],"right_children":[2,4,6,8,10,12,14,-1,16,18,20,22,24,26,28,30,32,34,-1,-1,36,-1,38,40,42,-1,-1,44,46,-1,48,50,52,-1,-1,54,-1,-1,56,-1,-1,58,60,62,64,66,68,-1,-1,-1,-1,-1,-1,-1,-1,-1,-1,-1,-1,-1,-1,-1,-1,-1,-1,-1,-1,-1,-1],"split_conditions":[-1.703158E1,4.132027E7,1.2935608E7,5.6877565E0,3.037195E5,2.5556223E2,4.6E2,-1.5200941E-1,-2.743074E1,-4.326693E7,2.0666666E1,-5.104234E0,3.035E2,7.9958545E2,2.0710902E0,6.0802164E0,4.5815826E1,2.375E1,-1.6413832E-1,-1.5120429E-1,-2.3653772E1,4.0039167E-2,1.2814421E7,1.1043187E1,7.0970154E0,1.2362505E-1,-1.7215522E-1,6.797554E1,1.0931734E2,3.0814877E-2,-4.1940544E1,6.2315E1,4.48E2,-1.4149064E-1,1.674175E-1,5.4723856E7,1.7731966E-1,-1.6527015E-1,2.8156972E0,1.7981601E-1,-8.4799185E-2,-2.2554E1,5.2035E3,2.2754686E2,-6.869747E6,4.0554524E7,-6.988214E6,1.8142557E-1,1.4962694E-1,1.4819069E-1,-1.6056949E-1,1.790539E-1,3.043443E-2,1.0004561E-1,-2.9053884E-2,-1.2041905E-1,3.892631E-2,1.7144895E-1,-1.674764E-1,2.8468466E-1,-4.461662E-2,1.5126976E-1,-1.5188348E-1,1.759634E-1,-1.22297086E-1,-1.6063026E-1,1.4257075E-1,1.7300834E-1,-1.4845158E-1],"split_indices":[91,7,7,15,92,88,4,0,91,6,25,84,1,13,83,15,15,63,0,0,86,0,7,37,26,0,0,88,88,0,91,0,0,0,0,7,0,0,89,0,0,81,92,15,6,7,6,0,0,0,0,0,0,0,0,0,0,0,0,0,0,0,0,0,0,0,0,0,0],"split_type":[0,0,0,0,0,0,0,0,0,0,0,0,0,0,0,0,0,0,0,0,0,0,0,0,0,0,0,0,0,0,0,0,0,0,0,0,0,0,0,0,0,0,0,0,0,0,0,0,0,0,0,0,0,0,0,0,0,0,0,0,0,0,0,0,0,0,0,0,0],"sum_hessian":[1.1294509E3,5.449976E2,5.8445325E2,4.0521338E2,1.3978427E2,4.049619E2,1.7949135E2,1.0617823E1,3.9459555E2,9.392581E1,4.585845E1,2.3839949E2,1.6656242E2,2.1979902E1,1.5751144E2,3.4288266E2,5.17129E1,1.1975143E1,8.195067E1,9.346177E0,3.6512276E1,1.0566376E0,2.3734285E2,3.674738E1,1.2981505E2,2.0682023E0,1.9911701E1,1.245889E2,3.2922543E1,1.42494E0,3.4145773E2,1.2558871E1,3.915403E1,4.8208146E0,7.1543283E0,2.236977E0,3.42753E1,2.3365788E2,3.6849666E0,3.5744003E1,1.003374E0,5.4067165E1,7.574788E1,3.307641E1,9.151249E1,1.5487641E1,1.74349E1,3.0433472E2,3.712301E1,4.113304E0,8.445567E0,3.812452E1,1.0295081E0,1.1955967E0,1.0413803E0,2.6770551E0,1.0079116E0,1.7743824E0,5.229278E1,1.1767124E1,6.398075E1,2.3798853E1,9.277556E0,8.909155E1,2.4209323E0,1.406989E1,1.417752E0,1.2234244E1,5.200657E0],"tree_param":{"num_deleted":"0","num_feature":"93","num_nodes":"69","size_leaf_vector":"0"}},{"base_weights":[-2.7490357E-1,-4.9609646E-1,8.5878804E-2,-5.022187E-1,3.2294986E-1,-4.0081102E-1,1.7343663E-1,-5.3716272E-2,-5.070034E-1,4.3314174E-1,8.8561885E-3,-4.717629E-1,4.7600797E-1,6.2455244E-2,4.8465332E-1,-4.0931457E-1,4.9783E-1,-5.087045E-1,1.1896128E-1,-5.292892E-1,4.2989713E-1,5.537541E-1,-3.744837E-2,-5.539326E-1,5.2554655E-1,-5.2267504E-1,-4.0404376E-1,6.5029854E-1,-4.1392487E-1,3.9360923E-1,-1.6150056E-1,-4.6839175E-1,5.663681E-1,-3.8799638E-1,-5.278666E-1,-5.208365E-1,-1.9976947E-1,-6.6888206E-2,6.795587E-1,5.8772826E-1,-5.109903E-1,-5.1122326E-1,3.396815E-2,-1.9617033E-1,5.8692163E-1],"categories":[],"categories_nodes":[],"categories_segments":[],"categories_sizes":[],"default_left":[1,1,0,1,1,1,1,1,1,0,0,1,0,1,1,0,0,1,0,0,0,1,1,0,1,1,1,1,0,1,1,0,1,0,0,0,0,0,0,0,0,0,0,0,0],"id":18,"left_children":[1,3,5,7,9,11,13,15,17,-1,-1,19,-1,21,23,-1,-1,25,-1,-1,-1,27,29,-1,31,33,35,37,-1,39,41,-1,43,-1,-1,-1,-1,-1,-1,-1,-1,-1,-1,-1,-1],"loss_changes":[6.0579033E1,2.521019E0,1.2391942E1,9.756088E-1,1.3802543E-1,2.9863067E0,8.458609E0,1.3906002E0,5.527115E-1,0E0,0E0,2.3838158E0,0E0,8.969313E0,3.0287123E0,0E0,0E0,4.6316528E-1,0E0,0E0,0E0,3.1533566E0,8.215355E0,0E0,2.8023453E0,7.7301025E-2,1.2968493E0,6.426935E-1,0E0,6.333642E0,8.158111E0,0E0,1.0635815E0,0E0,0E0,0E0,0E0,0E0,0E0,0E0,0E0,0E0,0E0,0E0,0E0],"parents":[2147483647,0,0,1,1,2,2,3,3,4,4,5,5,6,6,7,7,8,8,11,11,13,13,14,14,17,17,21,21,22,22,24,24,25,25,26,26,27,27,29,29,30,30,32,32],"right_children":[2,4,6,8,10,12,14,16,18,-1,-1,20,-1,22,24,-1,-1,26,-1,-1,-1,28,30,-1,32,34,36,38,-1,40,42,-1,44,-1,-1,-1,-1,-1,-1,-1,-1,-1,-1,-1,-1],"split_conditions":[3.9253784E1,6.40443E2,9.119E3,1.901841E-6,7.3517004E2,1.0053728E5,1.1151426E1,1.0732814E7,4.54153E1,1.2994252E-1,2.6568566E-3,1.642E3,1.428024E-1,2.342798E6,9.6933E5,-1.22794375E-1,1.49349E-1,7.802223E1,3.5688385E-2,-1.5878676E-1,1.2896915E-1,6.9433876E1,6.408848E1,-1.6617979E-1,2.1655855E1,6.2793887E-1,3.5951061E0,2.1658302E1,-1.2417746E-1,1.689286E1,6.3822205E2,-1.4051753E-1,5.93E3,-1.16398916E-1,-1.5835999E-1,-1.5625095E-1,-5.9930842E-2,-2.0066462E-2,2.0386761E-1,1.7631848E-1,-1.532971E-1,-1.5336698E-1,1.0190446E-2,-5.88511E-2,1.760765E-1],"split_indices":[91,18,92,19,0,9,38,7,60,0,0,56,0,7,7,0,0,50,0,0,0,58,88,0,51,45,91,76,0,86,15,0,4,0,0,0,0,0,0,0,0,0,0,0,0],"split_type":[0,0,0,0,0,0,0,0,0,0,0,0,0,0,0,0,0,0,0,0,0,0,0,0,0,0,0,0,0,0,0,0,0,0,0,0,0,0,0,0,0,0,0,0,0],"sum_hessian":[7.5757806E2,4.6941083E2,2.881672E2,4.6631204E2,3.0987885E0,4.33925E1,2.4477472E2,5.051281E0,4.6126077E2,2.0134125E0,1.0853761E0,4.0571434E1,2.821066E0,1.8131691E2,6.34578E1,3.2279825E0,1.8232983E0,4.6019754E2,1.0632203E0,3.8526417E1,2.0450175E0,2.987194E1,1.5144498E2,1.9286649E0,6.1529137E1,4.0247885E2,5.77187E1,2.7460238E1,2.4117024E0,3.3358307E1,1.1808666E2,2.014133E0,5.9515003E1,1.7749823E1,3.8472903E2,3.5736725E1,2.1981976E1,1.0260117E0,2.6434227E1,2.775304E1,5.605267E0,4.1758717E1,7.632794E1,1.3378092E0,5.8177197E1],"tree_param":{"num_deleted":"0","num_feature":"93","num_nodes":"45","size_leaf_vector":"0"}},{"base_weights":[1.3482957E-1,1.7442477E-1,-5.230092E-1,5.6991585E-2,5.291081E-1,4.860064E-1,-6.1868574E-2,5.446641E-1,-4.236158E-1,-1.7988108E-1,5.308034E-1,-2.7477542E-1,9.440854E-2,5.525938E-1,1.0930524E-1,4.3084446E-1,-4.616713E-1,-5.778104E-2,5.6695646E-1,1.0198572E-1,-4.910268E-1,2.7467966E-1,-2.7306366E-1,5.717088E-1,4.1046074E-1,-2.4962026E-1,4.0138063E-1,-5.288991E-1,3.008146E-1,4.1190112E-1,-3.035999E-1,-5.0630105E-1,4.2056015E-1,4.42373E-1,-8.068328E-2,4.659592E-1,-4.7976634E-1,-4.59725E-1,5.674558E-1],"categories":[],"categories_nodes":[],"categories_segments":[],"categories_sizes":[],"default_left":[1,1,0,1,1,1,1,0,0,1,1,1,1,1,1,0,0,1,0,1,1,1,0,0,1,0,0,0,0,0,0,0,0,0,0,0,0,0,0],"id":19,"left_children":[1,3,-1,5,7,9,11,13,-1,15,17,19,21,23,25,-1,-1,27,-1,29,31,33,35,-1,37,-1,-1,-1,-1,-1,-1,-1,-1,-1,-1,-1,-1,-1,-1],"loss_changes":[2.548884E1,3.830815E1,0E0,3.534877E1,3.6221313E0,4.5811424E0,1.8101084E1,7.1839905E-1,0E0,1.9586968E0,3.036312E0,1.8806797E1,2.0877943E1,3.6660767E-1,6.539264E-1,0E0,0E0,1.6923672E0,0E0,1.0781567E1,2.2518616E0,1.2620189E1,1.6088152E1,0E0,4.3293304E0,0E0,0E0,0E0,0E0,0E0,0E0,0E0,0E0,0E0,0E0,0E0,0E0,0E0,0E0],"parents":[2147483647,0,0,1,1,3,3,4,4,5,5,6,6,7,7,9,9,10,10,11,11,12,12,13,13,14,14,17,17,19,19,20,20,21,21,22,22,24,24],"right_children":[2,4,-1,6,8,10,12,14,-1,16,18,20,22,24,26,-1,-1,28,-1,30,32,34,36,-1,38,-1,-1,-1,-1,-1,-1,-1,-1,-1,-1,-1,-1,-1,-1],"split_conditions":[1.480493E6,-9.216913E5,-1.5690276E-1,9.904537E-1,3.9748926E2,-3.676312E7,3.2671835E2,2.1836725E5,-1.2708475E-1,-5.2086896E7,2.7815243E1,2.054445E1,2.7719822E1,2.109E2,7.65234E-1,1.2925334E-1,-1.3850139E-1,3.32693E-1,1.7008695E-1,7.51275E4,3.48742E1,1.0717759E7,7.2875E2,1.7151265E-1,3.701E2,-7.488608E-2,1.2041419E-1,-1.5866973E-1,9.024438E-2,1.2357034E-1,-9.107997E-2,-1.5189032E-1,1.2616806E-1,1.327119E-1,-2.4204986E-2,1.3978776E-1,-1.4392991E-1,-1.379175E-1,1.7023675E-1],"split_indices":[6,6,0,35,51,6,15,92,0,6,71,15,35,0,38,0,0,35,0,92,48,7,92,0,0,0,0,0,0,0,0,0,0,0,0,0,0,0,0],"split_type":[0,0,0,0,0,0,0,0,0,0,0,0,0,0,0,0,0,0,0,0,0,0,0,0,0,0,0,0,0,0,0,0,0,0,0,0,0,0,0],"sum_hessian":[9.74059E2,9.194522E2,5.4606823E1,6.9162177E2,2.2783047E2,1.4937555E2,5.422462E2,2.2459166E2,3.2388067E0,9.225592E0,1.4014995E2,2.2921411E2,3.1303207E2,2.2030963E2,4.282039E0,2.745752E0,6.4798393E0,8.075759E0,1.320742E2,8.377923E1,1.4543489E2,2.1017761E2,1.0285447E2,1.9152914E2,2.878048E1,1.9863772E0,2.295662E0,3.285023E0,4.7907357E0,4.748188E1,3.6297348E1,1.4347545E2,1.9594324E0,1.4262772E2,6.75499E1,2.2206272E1,8.06482E1,4.1041107E0,2.4676369E1],"tree_param":{"num_deleted":"0","num_feature":"93","num_nodes":"39","size_leaf_vector":"0"}},{"base_weights":[8.413654E-2,3.3079228E-1,-1.412544E-1,5.060638E-1,-1.8429865E-1,-3.0887535E-1,2.301485E-1,-4.9779212E-1,5.384181E-1,-5.172498E-1,2.1369168E-1,-5.307486E-1,-1.9078694E-2,3.7410784E-1,-2.4246146E-1,5.7374716E-1,4.130199E-1,5.3604312E-2,-5.2764606E-1,-3.7933424E-1,4.3427426E-1,-5.3466094E-1,9.008277E-2,4.9275473E-1,-1.8139133E-1,3.29726E-2,5.2993566E-1,-5.539575E-1,5.814135E-1,6.705618E-2,5.763623E-1,-9.113458E-2,5.611202E-1,2.9772642E-1,-5.11257E-1,-3.6996385E-1,4.8185077E-1,-5.3879076E-1,-2.0614651E-1,6.427693E-1,-4.5379335E-1,-4.206687E-1,1.1103858E-1,4.4423568E-1,-5.135004E-1,-4.5839533E-1,5.832702E-1,-5.667177E-1,-1.1575741E-1,5.132312E-1,-5.2992797E-1,5.681161E-1,8.832062E-2,5.137176E-1,-2.875267E-1,-3.555874E-1,1.1359086E-1,5.583292E-1,8.848562E-1,-5.0915074E-1,4.9128997E-1,-4.5011133E-1,3.1073487E-1,-2.8432524E-1,5.324798E-1],"categories":[],"categories_nodes":[],"categories_segments":[],"categories_sizes":[],"default_left":[1,1,1,1,1,1,1,0,1,1,0,1,1,1,1,1,1,0,0,1,1,1,0,1,1,1,1,1,0,0,0,1,1,0,0,0,1,0,1,1,0,1,1,1,0,0,0,0,0,0,0,0,0,0,0,0,0,0,0,0,0,0,0,0,0],"id":20,"left_children":[1,3,5,7,9,11,13,-1,15,17,19,21,23,25,27,29,31,-1,-1,33,35,37,-1,39,41,43,45,47,-1,-1,-1,49,51,-1,-1,-1,53,-1,55,57,-1,59,61,63,-1,-1,-1,-1,-1,-1,-1,-1,-1,-1,-1,-1,-1,-1,-1,-1,-1,-1,-1,-1,-1],"loss_changes":[5.0970783E1,3.960618E1,2.9911896E1,1.0882767E1,1.4931847E1,2.1253325E1,1.0271143E1,0E0,1.1678162E0,3.9144897E-1,6.92194E0,5.03006E-1,1.2088838E1,6.1004333E0,9.4437275E0,2.8575897E-1,5.5218086E0,0E0,0E0,1.4507978E0,1.6367536E0,1.4159393E-1,0E0,5.2679358E0,7.7710924E0,8.578137E0,4.428196E0,8.1477165E-2,0E0,0E0,0E0,4.911953E0,1.3760948E-1,0E0,0E0,0E0,1.0407104E0,0E0,2.2826225E-1,1.3279915E-1,0E0,5.166132E0,5.7954845E0,1.5487981E0,0E0,0E0,0E0,0E0,0E0,0E0,0E0,0E0,0E0,0E0,0E0,0E0,0E0,0E0,0E0,0E0,0E0,0E0,0E0,0E0,0E0],"parents":[2147483647,0,0,1,1,2,2,3,3,4,4,5,5,6,6,8,8,9,9,10,10,11,11,12,12,13,13,14,14,15,15,16,16,19,19,20,20,21,21,23,23,24,24,25,25,26,26,27,27,31,31,32,32,36,36,38,38,39,39,41,41,42,42,43,43],"right_children":[2,4,6,8,10,12,14,-1,16,18,20,22,24,26,28,30,32,-1,-1,34,36,38,-1,40,42,44,46,48,-1,-1,-1,50,52,-1,-1,-1,54,-1,56,58,-1,60,62,64,-1,-1,-1,-1,-1,-1,-1,-1,-1,-1,-1,-1,-1,-1,-1,-1,-1,-1,-1,-1,-1],"split_conditions":[-1.703158E1,4.132027E7,1.2935608E7,5.6877565E0,2.1975E1,2.5556223E2,6.5007117E2,-1.4933765E-1,-4.1940544E1,-6.576576E0,1.2814425E5,7.3493E5,5.959121E2,8.601895E1,1.1590483E3,6.0802164E0,4.5815826E1,1.6081294E-2,-1.5829383E-1,-4.7449576E7,2.1775002E1,1.2814421E7,2.7024833E-2,6.46E2,6.277681E0,2.2754686E2,8.7875E1,3.8908875E1,1.7442405E-1,2.0116854E-2,1.729087E-1,5.4695E1,2.4824785E1,8.931793E-2,-1.533771E-1,-1.1098916E-1,3.197385E1,-1.6163723E-1,2.9715792E1,3.2175E2,-1.36138E-1,9.5820166E2,8.01065E5,-6.65E-2,-1.5405013E-1,-1.375186E-1,1.7498106E-1,-1.700153E-1,-3.4727227E-2,1.5396938E-1,-1.589784E-1,1.7043485E-1,2.6496187E-2,1.5411529E-1,-8.625801E-2,-1.0667622E-1,3.407726E-2,1.6749877E-1,2.654569E-1,-1.5274523E-1,1.47387E-1,-1.350334E-1,9.3220465E-2,-8.529758E-2,1.5974395E-1],"split_indices":[91,7,7,15,56,88,18,0,91,89,92,4,15,88,23,15,15,0,0,6,54,7,0,0,36,15,63,60,0,0,0,0,59,0,0,0,59,0,58,0,0,50,7,5,0,0,0,0,0,0,0,0,0,0,0,0,0,0,0,0,0,0,0,0,0],"split_type":[0,0,0,0,0,0,0,0,0,0,0,0,0,0,0,0,0,0,0,0,0,0,0,0,0,0,0,0,0,0,0,0,0,0,0,0,0,0,0,0,0,0,0,0,0,0,0,0,0,0,0,0,0,0,0,0,0,0,0,0,0,0,0,0,0],"sum_hessian":[9.1499963E2,4.3666702E2,4.7833264E2,3.2581763E2,1.10849396E2,3.297009E2,1.4863173E2,9.724069E0,3.1609357E2,6.0193226E1,5.0656166E1,1.8626318E2,1.4343771E2,1.14088295E2,3.454344E1,2.4382445E2,7.226913E1,1.0022794E0,5.9190945E1,1.3538595E1,3.7117573E1,1.8523468E2,1.0285084E0,3.4045013E1,1.093927E2,3.615345E1,7.793484E1,2.530397E1,9.239472E0,1.3887677E0,2.4243567E2,1.6496693E1,5.5772438E1,2.002816E0,1.1535779E1,1.6946615E0,3.542291E1,1.8230283E2,2.9318447E0,2.9664534E1,4.380479E0,5.992293E1,4.946977E1,2.0735485E1,1.5417966E1,3.6014998E0,7.433334E1,2.4302996E1,1.0009751E0,6.8677926E0,9.628899E0,5.476055E1,1.0118858E0,3.433316E1,1.0897495E0,1.9215943E0,1.0102503E0,2.4444567E1,5.2199664E0,5.5025795E1,4.897138E0,1.2655006E1,3.6814762E1,2.0001147E0,1.873537E1],"tree_param":{"num_deleted":"0","num_feature":"93","num_nodes":"65","size_leaf_vector":"0"}},{"base_weights":[-2.524018E-1,-4.6565697E-1,1.01795346E-1,-4.9674425E-1,-2.3122945E-1,-3.956726E-1,1.6615698E-1,1.3779736E-1,-4.9904346E-1,-4.013788E-1,5.1351722E-2,5.294836E-1,-5.113565E-1,2.1062523E-2,3.6738577E-1,-4.4371006E-1,-5.2185637E-1,1.2923843E-1,-4.6278E-1,-1.9973272E-1,3.7503538E-1,1.1904042E-1,-5.1379645E-1,-3.8501066E-1,4.3645754E-1,-5.2154267E-1,3.6436677E-1,-5.2715063E-1,-2.727946E-1,4.3309304E-1,-2.8898156E-1,9.7584285E-2,-4.9095818E-1,3.1431565E-1,-5.19977E-1,5.145444E-1,-2.1033272E-1,1.9726251E-1,-4.352153E-1,-6.1300373E-1,3.7354872E-1,-4.6080765E-1,6.221018E-2,5.1856947E-1,-7.331761E-2,5.6028557E-1,-4.3703103E-1,-4.4315022E-1,3.5413972E-1,-5.1500654E-1,4.368534E-2,-1.2509064E-1,4.7875398E-1,6.971226E-1,1.19799204E-1,2.0283514E-1,-5.093786E-1,1.5904732E-1,-6.7031133E-1,5.572667E-1,-5.489307E-1,-5.7576793E-1,3.7380743E-1],"categories":[],"categories_nodes":[],"categories_segments":[],"categories_sizes":[],"default_left":[1,1,0,1,1,1,1,0,1,1,1,0,0,1,1,1,1,1,1,1,1,1,1,1,1,0,1,0,1,0,0,0,1,1,0,0,0,1,1,1,0,0,0,1,1,0,0,0,0,0,0,0,0,0,0,0,0,0,0,0,0,0,0],"id":21,"left_children":[1,3,5,7,9,11,13,-1,15,17,19,-1,-1,21,23,25,27,29,31,33,35,37,39,41,43,-1,45,-1,47,-1,-1,-1,49,51,-1,-1,-1,53,55,57,-1,-1,-1,59,61,-1,-1,-1,-1,-1,-1,-1,-1,-1,-1,-1,-1,-1,-1,-1,-1,-1,-1],"loss_changes":[4.686155E1,2.7057343E0,7.5495443E0,5.6604767E-1,2.2893624E0,3.168171E0,6.0555305E0,0E0,1.9742584E-1,1.0230708E0,1.588227E0,0E0,0E0,6.440025E0,4.6863785E0,6.8495903E0,1.6599655E-1,6.141639E-1,4.697795E-1,1.997102E0,8.0088055E-1,4.5813394E0,1.9045539E0,2.9448533E-1,3.3909235E0,0E0,1.7978828E0,0E0,9.0058E-1,0E0,0E0,0E0,3.5169792E-1,4.1385603E-1,0E0,0E0,0E0,3.461541E0,7.2490644E-1,8.808174E-1,0E0,0E0,0E0,3.1608772E0,2.908521E0,0E0,0E0,0E0,0E0,0E0,0E0,0E0,0E0,0E0,0E0,0E0,0E0,0E0,0E0,0E0,0E0,0E0,0E0],"parents":[2147483647,0,0,1,1,2,2,3,3,4,4,5,5,6,6,8,8,9,9,10,10,13,13,14,14,15,15,16,16,17,17,18,18,19,19,20,20,21,21,22,22,23,23,24,24,26,26,28,28,32,32,33,33,37,37,38,38,39,39,43,43,44,44],"right_children":[2,4,6,8,10,12,14,-1,16,18,20,-1,-1,22,24,26,28,30,32,34,36,38,40,42,44,-1,46,-1,48,-1,-1,-1,50,52,-1,-1,-1,54,56,58,-1,-1,-1,60,62,-1,-1,-1,-1,-1,-1,-1,-1,-1,-1,-1,-1,-1,-1,-1,-1,-1,-1],"split_conditions":[4.4881603E1,2.6246044E1,5.548E3,-3.620053E-1,8.158807E0,2.315013E6,3.9322186E2,4.1339207E-2,-1.4158732E7,1.6257127E-17,1.5685E2,1.588451E-1,-1.5340695E-1,2.64245E2,-6.962855E6,-1.5638152E7,1.4958513E1,-4.9818956E5,-4.0448756E5,6.3175003E1,1.8745783E1,-1.3876112E-2,4.685325E1,1.6445122E6,1.4703175E3,-1.564628E-1,6.5440384E1,-1.5814519E-1,3.9246532E-1,1.2992792E-1,-8.669447E-2,2.9275287E-2,4.448208E5,8.23E1,-1.559931E-1,1.5436333E-1,-6.309982E-2,4.0720415E6,-6.9299996E-2,4.1E2,1.1206462E-1,-1.382423E-1,1.8663054E-2,7.9927563E2,1.6528875E3,1.6808568E-1,-1.3110931E-1,-1.3294508E-1,1.0624192E-1,-1.5450197E-1,1.3105602E-2,-3.7527196E-2,1.436262E-1,2.0913678E-1,3.5939764E-2,6.0850546E-2,-1.5281358E-1,4.77142E-2,-2.010934E-1,1.6718002E-1,-1.6467921E-1,-1.7273039E-1,1.12142235E-1],"split_indices":[91,91,92,20,26,7,18,0,6,74,30,0,0,30,6,6,26,6,10,63,85,8,37,10,63,0,13,0,47,0,0,0,10,1,0,0,0,7,5,4,0,0,0,88,62,0,0,0,0,0,0,0,0,0,0,0,0,0,0,0,0,0,0],"split_type":[0,0,0,0,0,0,0,0,0,0,0,0,0,0,0,0,0,0,0,0,0,0,0,0,0,0,0,0,0,0,0,0,0,0,0,0,0,0,0,0,0,0,0,0,0,0,0,0,0,0,0,0,0,0,0,0,0,0,0,0,0,0,0],"sum_hessian":[6.1877277E2,3.8603433E2,2.3273842E2,3.3984833E2,4.6186012E1,2.6072165E1,2.0666624E2,1.0142087E0,3.388341E2,2.8565557E1,1.7620455E1,2.5002198E0,2.3571943E1,1.2072389E2,8.594236E1,1.0488418E2,2.3394994E2,2.848091E0,2.5717466E1,1.0138704E1,7.4817495E0,1.02690094E2,1.8033802E1,6.8417163E0,7.910064E1,9.599289E1,8.891291E0,2.279871E2,5.9628315E0,1.6289943E0,1.2190965E0,1.1133689E0,2.4604097E1,3.8988605E0,6.239844E0,6.1395245E0,1.3422251E0,9.055427E1,1.2135825E1,1.6498411E1,1.5353906E0,5.8242207E0,1.0174956E0,6.811223E1,1.0988414E1,7.3863935E0,1.5048969E0,4.9192743E0,1.0435575E0,2.3580183E1,1.0239131E0,1.1268957E0,2.7719648E0,1.1076935E1,7.947733E1,1.0830479E0,1.1052778E1,1.0173454E0,1.5481066E1,6.619076E1,1.9214664E0,5.038623E0,5.9497914E0],"tree_param":{"num_deleted":"0","num_feature":"93","num_nodes":"63","size_leaf_vector":"0"}},{"base_weights":[1.22802064E-1,2.185333E-1,-1.2711172E-1,4.6285304E-1,2.199351E-2,3.282596E-1,-2.6796642E-1,5.711979E-1,-5.034558E-1,-2.3023057E-1,3.8343614E-1,-5.002646E-1,5.914621E-1,-3.5025913E-1,5.624291E-1,5.509539E-1,1.0490335E0,4.2313418E-1,-3.7226704E-1,4.81304E-1,-4.4059348E-1,6.2667155E-1,-3.492442E-1,-4.8553005E-1,3.2786617E-1,5.647667E-1,-2.3924264E-1,5.2300453E-1,-4.171735E-1,3.744058E-2,-5.190721E-1,5.374469E-1,-4.2355043E-1,-4.9235508E-1,1.3084802E-1,2.3463015E-1,-5.347011E-1,-4.8347595E-1,6.546549E-1,-7.5254984E-2,5.680908E-1,-4.6151385E-1,2.4633442E-1,-3.4690872E-1,5.911021E-1,-2.9914322E-1,4.95923E-1,-5.33439E-1,-2.6198829E-2,5.561624E-1,1.7114921E-1,6.489824E-1,-3.9008757E-1,4.961128E-1,-5.4882455E-1,-5.250787E-1,-1.0093082E-1],"categories":[],"categories_nodes":[],"categories_segments":[],"categories_sizes":[],"default_left":[1,1,1,1,1,1,1,1,0,1,1,0,1,1,0,1,0,1,1,1,1,0,0,1,1,1,1,1,0,0,1,1,0,0,0,1,1,1,0,0,0,0,0,0,0,0,0,0,0,0,0,0,0,0,0,0,0],"id":22,"left_children":[1,3,5,7,9,11,13,15,-1,17,19,-1,21,23,-1,25,-1,27,29,31,33,-1,-1,35,37,39,41,43,-1,45,47,49,-1,-1,-1,51,53,55,-1,-1,-1,-1,-1,-1,-1,-1,-1,-1,-1,-1,-1,-1,-1,-1,-1,-1,-1],"loss_changes":[1.9139732E1,2.7742605E1,1.4319796E1,2.7258007E1,2.9383919E1,1.1824772E1,1.1815053E1,1.6672745E0,0E0,1.7780153E1,1.089389E1,0E0,1.562952E0,1.4405121E1,0E0,2.5885468E0,0E0,3.1032577E0,9.433525E0,6.2663784E0,4.9577618E-1,0E0,0E0,4.724558E0,7.3225574E0,5.1338196E-1,6.062925E-1,2.0515375E0,0E0,6.6638393E0,8.0244255E-1,6.7513657E-1,0E0,0E0,0E0,2.5818083E0,2.046711E0,7.6906204E-2,0E0,0E0,0E0,0E0,0E0,0E0,0E0,0E0,0E0,0E0,0E0,0E0,0E0,0E0,0E0,0E0,0E0,0E0,0E0],"parents":[2147483647,0,0,1,1,2,2,3,3,4,4,5,5,6,6,7,7,9,9,10,10,12,12,13,13,15,15,17,17,18,18,19,19,20,20,23,23,24,24,25,25,26,26,27,27,29,29,30,30,31,31,35,35,36,36,37,37],"right_children":[2,4,6,8,10,12,14,16,-1,18,20,-1,22,24,-1,26,-1,28,30,32,34,-1,-1,36,38,40,42,44,-1,46,48,50,-1,-1,-1,52,54,56,-1,-1,-1,-1,-1,-1,-1,-1,-1,-1,-1,-1,-1,-1,-1,-1,-1,-1,-1],"split_conditions":[1.955469E2,1.0737001E7,8.88305E5,3.9505555E6,4.1352668E7,3.9405E2,1.321001E7,1.9055E2,-1.5103675E-1,1.035E3,2.38E1,-1.5007938E-1,7.9899805E2,5.6308407E1,1.6872872E-1,1.9102533E2,3.1471008E-1,1.142E3,1.2396916E7,-9.096424E6,1.7802345E1,1.8800147E-1,-1.0477327E-1,1.0777952E-5,1.0904762E2,-2.7677152E4,2.0706233E2,2.839896E2,-1.2515205E-1,1.5271225E5,3.5538433E1,1.4991137E0,-1.2706514E-1,-1.4770652E-1,3.925441E-2,-2.7990696E0,9.889245E5,4.103357E1,1.9639648E-1,-2.2576496E-2,1.7042725E-1,-1.3845415E-1,7.390033E-2,-1.0407262E-1,1.7733064E-1,-8.974297E-2,1.487769E-1,-1.600317E-1,-7.859649E-3,1.6684873E-1,5.1344763E-2,1.9469473E-1,-1.1702628E-1,1.4883384E-1,-1.6464737E-1,-1.5752362E-1,-3.0279247E-2],"split_indices":[88,7,7,6,7,0,7,55,0,4,30,0,41,58,0,68,0,1,7,6,26,0,0,34,91,12,17,15,0,92,59,35,0,0,0,38,7,59,0,0,0,0,0,0,0,0,0,0,0,0,0,0,0,0,0,0,0],"split_type":[0,0,0,0,0,0,0,0,0,0,0,0,0,0,0,0,0,0,0,0,0,0,0,0,0,0,0,0,0,0,0,0,0,0,0,0,0,0,0,0,0,0,0,0,0,0,0,0,0,0,0,0,0,0,0,0,0],"sum_hessian":[7.978425E2,5.7695966E2,2.208829E2,2.5661057E2,3.203491E2,5.18679E1,1.69015E2,2.3110716E2,2.5503397E1,1.8889574E2,1.3145334E2,1.22876E1,3.95803E1,1.543018E2,1.4713199E1,2.2377954E2,7.3276267E0,3.337811E1,1.5551764E2,1.1787013E2,1.3583212E1,3.847409E1,1.1062083E0,1.288776E2,2.5424208E1,2.2021541E2,3.5641308E0,3.0170013E1,3.2080953E0,4.122124E1,1.14296394E2,1.11366295E2,6.503836E0,1.2581929E1,1.0012821E0,7.9960184E0,1.2088158E2,7.1623197E0,1.8261887E1,1.026007E0,2.191894E2,2.478954E0,1.0851766E0,1.8930413E0,2.8276972E1,2.3971027E1,1.7250214E1,1.1097914E2,3.3172503E0,1.0545963E2,5.9066586E0,4.7840757E0,3.2119427E0,1.1725849E0,1.1970899E2,6.123753E0,1.0385665E0],"tree_param":{"num_deleted":"0","num_feature":"93","num_nodes":"57","size_leaf_vector":"0"}},{"base_weights":[7.872496E-2,3.1420037E-1,-1.3336195E-1,4.8115802E-1,-1.8032973E-1,-2.8979293E-1,2.1083072E-1,-4.7742644E-1,5.125862E-1,-4.2979527E-1,3.0414408E-1,-5.200076E-1,-1.4509093E-2,3.5291356E-1,-2.3733863E-1,5.52672E-1,3.797346E-1,1.09748E-1,-5.2392864E-1,-4.6603182E-1,5.0928825E-1,4.743649E-2,-5.2427906E-1,-4.092356E-1,1.7259009E-1,3.587786E-3,5.043064E-1,-5.3654474E-1,5.5267364E-1,4.7575526E-2,5.559542E-1,-8.66972E-2,5.162493E-1,-4.3141952E-1,4.964228E-1,8.7984405E-2,5.360234E-1,-5.2926606E-1,-1.9495454E-1,2.7432212E-1,-4.9120736E-1,3.9429152E-1,-1.802423E-1,3.8800013E-1,-4.9518725E-1,-4.390995E-1,5.6075096E-1,-1.2159488E-1,-5.503081E-1,4.8137677E-1,-4.9995533E-1,5.294363E-1,-4.2034034E-2,-3.3925155E-1,9.931347E-2,5.9542614E-1,-2.6307532E-1,2.8570187E-1,-5.423402E-1,-1.8645933E-1,5.007543E-1,-5.319175E-1,4.1291955E-1,-3.7241958E-2,5.859253E-1],"categories":[],"categories_nodes":[],"categories_segments":[],"categories_sizes":[],"default_left":[1,1,1,1,1,1,1,0,1,1,1,1,1,1,1,1,1,1,0,0,1,0,1,1,1,1,1,1,0,0,0,1,1,0,0,0,0,0,1,1,1,1,1,0,0,0,0,0,0,0,0,0,0,0,0,0,0,0,0,0,0,0,0,0,0],"id":23,"left_children":[1,3,5,7,9,11,13,-1,15,17,19,21,23,25,27,29,31,33,-1,-1,35,-1,37,39,41,43,45,47,-1,-1,-1,49,51,-1,-1,-1,-1,-1,53,55,57,59,61,63,-1,-1,-1,-1,-1,-1,-1,-1,-1,-1,-1,-1,-1,-1,-1,-1,-1,-1,-1,-1,-1],"loss_changes":[3.704651E1,2.9101871E1,2.1088911E1,8.16782E0,1.0938525E1,1.703578E1,7.891406E0,0E0,1.1488113E0,3.076583E0,5.132243E0,3.79776E-1,9.19188E0,4.9429893E0,7.4144783E0,2.948227E-1,4.013794E0,2.234996E0,0E0,0E0,2.3377943E-1,0E0,1.3563919E-1,2.3767538E0,6.680392E0,5.805578E0,3.719368E0,6.0718536E-2,0E0,0E0,0E0,3.7548478E0,3.783121E-1,0E0,0E0,0E0,0E0,0E0,1.9302419E-1,1.0067005E0,1.5885029E0,3.320959E0,7.1640353E0,1.4606183E0,0E0,0E0,0E0,0E0,0E0,0E0,0E0,0E0,0E0,0E0,0E0,0E0,0E0,0E0,0E0,0E0,0E0,0E0,0E0,0E0,0E0],"parents":[2147483647,0,0,1,1,2,2,3,3,4,4,5,5,6,6,8,8,9,9,10,10,11,11,12,12,13,13,14,14,15,15,16,16,17,17,20,20,22,22,23,23,24,24,25,25,26,26,27,27,31,31,32,32,38,38,39,39,40,40,41,41,42,42,43,43],"right_children":[2,4,6,8,10,12,14,-1,16,18,20,22,24,26,28,30,32,34,-1,-1,36,-1,38,40,42,44,46,48,-1,-1,-1,50,52,-1,-1,-1,-1,-1,54,56,58,60,62,64,-1,-1,-1,-1,-1,-1,-1,-1,-1,-1,-1,-1,-1,-1,-1,-1,-1,-1,-1,-1,-1],"split_conditions":[-1.5358545E1,4.132027E7,1.2935608E7,5.6877565E0,3.037195E5,2.5562039E2,6.5007117E2,-1.4322793E-1,-4.1940544E1,-4.326693E7,2.0666666E1,2.2163637E1,6.975649E0,8.601895E1,1.1590483E3,6.0802164E0,4.6453114E1,2.375E1,-1.571786E-1,-1.3980955E-1,-2.3653772E1,1.4230948E-2,1.2814421E7,-2.67736E0,5.778634E2,2.2754686E2,8.7875E1,-1.7299384E2,1.6580209E-1,1.4272658E-2,1.6678627E-1,5.517E1,4.455E2,-1.2942587E-1,1.4892684E-1,2.6395323E-2,1.6080701E-1,-1.5877983E-1,1.6086056E1,3.2113007E-1,2.95622E2,8.116245E5,1.4703175E3,5.86066E5,-1.4855619E-1,-1.3172986E-1,1.6822529E-1,-3.6478467E-2,-1.6509244E-1,1.4441304E-1,-1.4998661E-1,1.588309E-1,-1.2610211E-2,-1.0177547E-1,2.9794041E-2,1.7862785E-1,-7.89226E-2,8.571056E-2,-1.6270207E-1,-5.59378E-2,1.502263E-1,-1.5957525E-1,1.2387587E-1,-1.1172588E-2,1.7577758E-1],"split_indices":[91,7,7,15,92,88,18,0,91,6,25,71,26,88,23,15,15,63,0,0,86,0,7,89,41,15,63,61,0,0,0,0,1,0,0,0,0,0,85,73,17,7,63,92,0,0,0,0,0,0,0,0,0,0,0,0,0,0,0,0,0,0,0,0,0],"split_type":[0,0,0,0,0,0,0,0,0,0,0,0,0,0,0,0,0,0,0,0,0,0,0,0,0,0,0,0,0,0,0,0,0,0,0,0,0,0,0,0,0,0,0,0,0,0,0,0,0,0,0,0,0,0,0,0,0,0,0,0,0,0,0,0,0],"sum_hessian":[7.3996265E2,3.5041888E2,3.895438E2,2.6199435E2,8.842452E1,2.6793085E2,1.21612946E2,7.8665566E0,2.5412779E2,5.8443584E1,2.9980942E1,1.4542538E2,1.2250547E2,9.250021E1,2.9112738E1,1.9279486E2,6.133293E1,8.65722E0,4.978636E1,6.0385585E0,2.3942383E1,1.0110161E0,1.4441437E2,3.9012608E1,8.349287E1,2.827706E1,6.422315E1,2.1348232E1,7.764505E0,1.3447564E0,1.914501E2,1.3969173E1,4.7363758E1,3.5596395E0,5.097581E0,1.6847249E0,2.2257658E1,1.4166202E2,2.752343E0,3.926149E0,3.508646E1,5.120243E1,3.2290436E1,1.6094734E1,1.2182325E1,3.2428794E0,6.098027E1,1.0010924E0,2.034714E1,5.8132777E0,8.155895E0,4.6321297E1,1.0424641E0,1.7441951E0,1.0081478E0,2.3900642E0,1.5360847E0,1.88336E0,3.32031E1,7.8158445E0,4.3386585E1,2.033652E1,1.1953915E1,5.369724E0,1.072501E1],"tree_param":{"num_deleted":"0","num_feature":"93","num_nodes":"65","size_leaf_vector":"0"}},{"base_weights":[-2.3430559E-1,-4.6612597E-1,7.378109E-2,-4.729177E-1,2.519547E-1,-3.9450508E-1,1.3381423E-1,-7.619996E-2,-4.8105362E-1,3.3655775E-1,3.292073E-2,-4.9990204E-1,4.0667897E-1,3.498001E-2,3.709768E-1,3.596235E-1,-4.025339E-1,-5.0011235E-1,-3.4911406E-1,2.2979298E-1,-1.1980616E-1,4.2949638E-1,-2.4995102E-1,4.635255E-1,9.549743E-2,-3.2262853E-1,-5.07557E-1,-4.9735147E-1,-1.321736E-1,3.304484E-1,-4.8904485E-1,2.8879067E-1,-2.650341E-1,-4.9227697E-1,4.7290623E-1,3.86158E-1,-6.278535E-1,-7.4493036E-2,-4.649439E-1,-2.1061122E-1,-5.098592E-1,4.82161E-1,-3.253144E-1,3.8774922E-1,-4.0906322E-1,5.5678236E-1,-1.122235E-1,3.67561E-1,-4.4640756E-1,-1.8664964E-1,5.27201E-1],"categories":[],"categories_nodes":[],"categories_segments":[],"categories_sizes":[],"default_left":[1,1,0,1,1,1,1,1,1,0,0,0,0,1,1,1,0,1,1,1,1,1,1,0,0,1,1,0,1,1,0,1,1,0,1,0,0,0,0,0,0,0,0,0,0,0,0,0,0,0,0],"id":24,"left_children":[1,3,5,7,9,11,13,15,17,-1,-1,-1,-1,19,21,23,-1,25,27,29,31,33,35,-1,-1,37,39,-1,41,43,-1,45,47,-1,49,-1,-1,-1,-1,-1,-1,-1,-1,-1,-1,-1,-1,-1,-1,-1,-1],"loss_changes":[3.556581E1,1.5043373E0,6.0822005E0,8.7260056E-1,5.0324038E-2,2.2826016E0,4.4604807E0,1.1189073E0,5.190735E-1,0E0,0E0,0E0,0E0,4.122927E0,2.1434484E0,5.071166E-2,0E0,1.5168E-1,1.1604862E0,4.5372667E0,4.606498E0,2.2965755E0,1.554551E0,0E0,0E0,4.016658E-1,4.8057556E-2,0E0,2.1550052E0,2.4317513E0,0E0,2.2652478E0,6.685974E0,0E0,1.8805676E0,0E0,0E0,0E0,0E0,0E0,0E0,0E0,0E0,0E0,0E0,0E0,0E0,0E0,0E0,0E0,0E0],"parents":[2147483647,0,0,1,1,2,2,3,3,4,4,5,5,6,6,7,7,8,8,13,13,14,14,15,15,17,17,18,18,19,19,20,20,21,21,22,22,25,25,26,26,28,28,29,29,31,31,32,32,34,34],"right_children":[2,4,6,8,10,12,14,16,18,-1,-1,-1,-1,20,22,24,-1,26,28,30,32,34,36,-1,-1,38,40,-1,42,44,-1,46,48,-1,50,-1,-1,-1,-1,-1,-1,-1,-1,-1,-1,-1,-1,-1,-1,-1,-1],"split_conditions":[3.9253784E1,6.40443E2,5.548E3,9.9400425E0,8.0367004E2,1.0053728E5,2.4298382E1,1.37853545E-17,7.802223E1,1.00967325E-1,9.87622E-3,-1.4997062E-1,1.220037E-1,2.5046654E1,1.6250513E1,-1.3779302E0,-1.2076017E-1,6.2793887E-1,3.5951061E0,2.732344E7,-1.4154302E7,9.6933E5,1.1074009E2,1.3905765E-1,2.864923E-2,-1.3867278E7,3.3843457E-9,-1.4920545E-1,-1.326602E7,9.9993256E1,-1.4671347E-1,8.7875E1,2.338883E6,-1.476831E-1,1.81E2,1.158474E-1,-1.8835606E-1,-2.2347912E-2,-1.3948317E-1,-6.318337E-2,-1.5295777E-1,1.446483E-1,-9.759433E-2,1.16324775E-1,-1.2271897E-1,1.6703472E-1,-3.366705E-2,1.1026831E-1,-1.3392228E-1,-5.5994894E-2,1.581603E-1],"split_indices":[91,18,92,76,16,9,80,74,50,0,0,0,0,58,26,37,0,45,91,7,6,7,52,0,0,6,57,0,6,57,0,63,7,0,2,0,0,0,0,0,0,0,0,0,0,0,0,0,0,0,0],"split_type":[0,0,0,0,0,0,0,0,0,0,0,0,0,0,0,0,0,0,0,0,0,0,0,0,0,0,0,0,0,0,0,0,0,0,0,0,0,0,0,0,0,0,0,0,0,0,0,0,0,0,0],"sum_hessian":[4.9649426E2,2.8302136E2,2.134729E2,2.807078E2,2.313581E0,2.3623926E1,1.8984898E2,5.8493843E0,2.748584E2,1.2818893E0,1.0316916E0,2.1209793E1,2.4141335E0,1.3481442E2,5.503455E1,2.4608605E0,3.3885238E0,2.3772804E2,3.7130367E1,5.9474983E1,7.533945E1,5.0576267E1,4.458279E0,1.2243032E0,1.2365574E0,1.1355072E1,2.2637297E2,2.1290085E1,1.58402815E1,5.264382E1,6.8311605E0,1.9496834E1,5.5842613E1,1.8096471E0,4.876662E1,1.653373E0,2.8049061E0,4.694085E0,6.660987E0,2.4530523E0,2.239199E2,3.430921E0,1.240936E1,4.929953E1,3.3442907E0,1.1453918E1,8.042916E0,1.2214451E1,4.362816E1,3.5237327E0,4.524289E1],"tree_param":{"num_deleted":"0","num_feature":"93","num_nodes":"51","size_leaf_vector":"0"}},{"base_weights":[1.1646321E-1,2.0713568E-1,-1.187742E-1,4.55604E-1,1.9614117E-2,